digraph Tree {
node [shape=box, fontname="helvetica"] ;
edge [fontname="helvetica"] ;
0 [label="flee <= 1.5\nentropy = 0.802\nsamples = 2930\nvalue = [2215, 715]\nclass = No"] ;
1 [label="armed <= 13.0\nentropy = 0.509\nsamples = 850\nvalue = [754, 96]\nclass = No"] ;
0 -> 1 [labeldistance=2.5, labelangle=45, headlabel="True"] ;
2 [label="entropy = 0.0\nsamples = 4\nvalue = [0, 4]\nclass = Yes"] ;
1 -> 2 ;
3 [label="race <= 2.5\nentropy = 0.496\nsamples = 846\nvalue = [754, 92]\nclass = No"] ;
1 -> 3 ;
4 [label="armed <= 40.0\nentropy = 0.412\nsamples = 459\nvalue = [421, 38]\nclass = No"] ;
3 -> 4 ;
5 [label="flee <= 0.5\nentropy = 0.288\nsamples = 298\nvalue = [283.0, 15.0]\nclass = No"] ;
4 -> 5 ;
6 [label="body_camera <= 0.5\nentropy = 0.387\nsamples = 119\nvalue = [110, 9]\nclass = No"] ;
5 -> 6 ;
7 [label="threat_level <= 1.5\nentropy = 0.31\nsamples = 108\nvalue = [102, 6]\nclass = No"] ;
6 -> 7 ;
8 [label="race <= 1.5\nentropy = 0.274\nsamples = 106\nvalue = [101, 5]\nclass = No"] ;
7 -> 8 ;
9 [label="age <= 40.5\nentropy = 0.396\nsamples = 64\nvalue = [59, 5]\nclass = No"] ;
8 -> 9 ;
10 [label="age <= 38.5\nentropy = 0.439\nsamples = 55\nvalue = [50, 5]\nclass = No"] ;
9 -> 10 ;
11 [label="age <= 29.5\nentropy = 0.337\nsamples = 48\nvalue = [45, 3]\nclass = No"] ;
10 -> 11 ;
12 [label="age <= 27.5\nentropy = 0.449\nsamples = 32\nvalue = [29, 3]\nclass = No"] ;
11 -> 12 ;
13 [label="threat_level <= 0.5\nentropy = 0.267\nsamples = 22\nvalue = [21, 1]\nclass = No"] ;
12 -> 13 ;
14 [label="entropy = 0.0\nsamples = 17\nvalue = [17, 0]\nclass = No"] ;
13 -> 14 ;
15 [label="age <= 20.0\nentropy = 0.722\nsamples = 5\nvalue = [4, 1]\nclass = No"] ;
13 -> 15 ;
16 [label="age <= 18.0\nentropy = 0.918\nsamples = 3\nvalue = [2, 1]\nclass = No"] ;
15 -> 16 ;
17 [label="entropy = 0.0\nsamples = 1\nvalue = [1, 0]\nclass = No"] ;
16 -> 17 ;
18 [label="entropy = 1.0\nsamples = 2\nvalue = [1, 1]\nclass = No"] ;
16 -> 18 ;
19 [label="entropy = 0.0\nsamples = 2\nvalue = [2, 0]\nclass = No"] ;
15 -> 19 ;
20 [label="age <= 28.5\nentropy = 0.722\nsamples = 10\nvalue = [8, 2]\nclass = No"] ;
12 -> 20 ;
21 [label="entropy = 0.65\nsamples = 6\nvalue = [5, 1]\nclass = No"] ;
20 -> 21 ;
22 [label="entropy = 0.811\nsamples = 4\nvalue = [3, 1]\nclass = No"] ;
20 -> 22 ;
23 [label="entropy = 0.0\nsamples = 16\nvalue = [16, 0]\nclass = No"] ;
11 -> 23 ;
24 [label="age <= 39.5\nentropy = 0.863\nsamples = 7\nvalue = [5, 2]\nclass = No"] ;
10 -> 24 ;
25 [label="entropy = 0.722\nsamples = 5\nvalue = [4, 1]\nclass = No"] ;
24 -> 25 ;
26 [label="entropy = 1.0\nsamples = 2\nvalue = [1, 1]\nclass = No"] ;
24 -> 26 ;
27 [label="entropy = 0.0\nsamples = 9\nvalue = [9, 0]\nclass = No"] ;
9 -> 27 ;
28 [label="entropy = 0.0\nsamples = 42\nvalue = [42, 0]\nclass = No"] ;
8 -> 28 ;
29 [label="race <= 1.5\nentropy = 1.0\nsamples = 2\nvalue = [1, 1]\nclass = No"] ;
7 -> 29 ;
30 [label="entropy = 0.0\nsamples = 1\nvalue = [1, 0]\nclass = No"] ;
29 -> 30 ;
31 [label="entropy = 0.0\nsamples = 1\nvalue = [0, 1]\nclass = Yes"] ;
29 -> 31 ;
32 [label="age <= 22.5\nentropy = 0.845\nsamples = 11\nvalue = [8, 3]\nclass = No"] ;
6 -> 32 ;
33 [label="age <= 20.0\nentropy = 1.0\nsamples = 4\nvalue = [2, 2]\nclass = No"] ;
32 -> 33 ;
34 [label="entropy = 0.0\nsamples = 2\nvalue = [2, 0]\nclass = No"] ;
33 -> 34 ;
35 [label="entropy = 0.0\nsamples = 2\nvalue = [0, 2]\nclass = Yes"] ;
33 -> 35 ;
36 [label="age <= 26.5\nentropy = 0.592\nsamples = 7\nvalue = [6, 1]\nclass = No"] ;
32 -> 36 ;
37 [label="entropy = 0.0\nsamples = 3\nvalue = [3, 0]\nclass = No"] ;
36 -> 37 ;
38 [label="age <= 28.5\nentropy = 0.811\nsamples = 4\nvalue = [3, 1]\nclass = No"] ;
36 -> 38 ;
39 [label="race <= 1.5\nentropy = 1.0\nsamples = 2\nvalue = [1, 1]\nclass = No"] ;
38 -> 39 ;
40 [label="entropy = 0.0\nsamples = 1\nvalue = [1, 0]\nclass = No"] ;
39 -> 40 ;
41 [label="entropy = 0.0\nsamples = 1\nvalue = [0, 1]\nclass = Yes"] ;
39 -> 41 ;
42 [label="entropy = 0.0\nsamples = 2\nvalue = [2, 0]\nclass = No"] ;
38 -> 42 ;
43 [label="age <= 24.5\nentropy = 0.212\nsamples = 179\nvalue = [173, 6]\nclass = No"] ;
5 -> 43 ;
44 [label="entropy = 0.0\nsamples = 64\nvalue = [64, 0]\nclass = No"] ;
43 -> 44 ;
45 [label="gender <= 0.5\nentropy = 0.296\nsamples = 115\nvalue = [109, 6]\nclass = No"] ;
43 -> 45 ;
46 [label="threat_level <= 1.0\nentropy = 1.0\nsamples = 2\nvalue = [1, 1]\nclass = No"] ;
45 -> 46 ;
47 [label="entropy = 0.0\nsamples = 1\nvalue = [1, 0]\nclass = No"] ;
46 -> 47 ;
48 [label="entropy = 0.0\nsamples = 1\nvalue = [0, 1]\nclass = Yes"] ;
46 -> 48 ;
49 [label="age <= 28.5\nentropy = 0.261\nsamples = 113\nvalue = [108, 5]\nclass = No"] ;
45 -> 49 ;
50 [label="body_camera <= 0.5\nentropy = 0.48\nsamples = 29\nvalue = [26, 3]\nclass = No"] ;
49 -> 50 ;
51 [label="age <= 25.5\nentropy = 0.391\nsamples = 26\nvalue = [24, 2]\nclass = No"] ;
50 -> 51 ;
52 [label="entropy = 0.0\nsamples = 6\nvalue = [6, 0]\nclass = No"] ;
51 -> 52 ;
53 [label="manner_of_death <= 0.5\nentropy = 0.469\nsamples = 20\nvalue = [18, 2]\nclass = No"] ;
51 -> 53 ;
54 [label="age <= 27.5\nentropy = 0.485\nsamples = 19\nvalue = [17, 2]\nclass = No"] ;
53 -> 54 ;
55 [label="threat_level <= 0.5\nentropy = 0.391\nsamples = 13\nvalue = [12, 1]\nclass = No"] ;
54 -> 55 ;
56 [label="entropy = 0.0\nsamples = 9\nvalue = [9, 0]\nclass = No"] ;
55 -> 56 ;
57 [label="race <= 1.5\nentropy = 0.811\nsamples = 4\nvalue = [3, 1]\nclass = No"] ;
55 -> 57 ;
58 [label="entropy = 0.0\nsamples = 1\nvalue = [1, 0]\nclass = No"] ;
57 -> 58 ;
59 [label="entropy = 0.918\nsamples = 3\nvalue = [2, 1]\nclass = No"] ;
57 -> 59 ;
60 [label="threat_level <= 0.5\nentropy = 0.65\nsamples = 6\nvalue = [5, 1]\nclass = No"] ;
54 -> 60 ;
61 [label="entropy = 0.918\nsamples = 3\nvalue = [2, 1]\nclass = No"] ;
60 -> 61 ;
62 [label="entropy = 0.0\nsamples = 3\nvalue = [3, 0]\nclass = No"] ;
60 -> 62 ;
63 [label="entropy = 0.0\nsamples = 1\nvalue = [1, 0]\nclass = No"] ;
53 -> 63 ;
64 [label="threat_level <= 0.5\nentropy = 0.918\nsamples = 3\nvalue = [2, 1]\nclass = No"] ;
50 -> 64 ;
65 [label="entropy = 0.0\nsamples = 1\nvalue = [0, 1]\nclass = Yes"] ;
64 -> 65 ;
66 [label="entropy = 0.0\nsamples = 2\nvalue = [2, 0]\nclass = No"] ;
64 -> 66 ;
67 [label="manner_of_death <= 0.5\nentropy = 0.162\nsamples = 84\nvalue = [82, 2]\nclass = No"] ;
49 -> 67 ;
68 [label="age <= 34.5\nentropy = 0.096\nsamples = 81\nvalue = [80, 1]\nclass = No"] ;
67 -> 68 ;
69 [label="entropy = 0.0\nsamples = 44\nvalue = [44, 0]\nclass = No"] ;
68 -> 69 ;
70 [label="age <= 35.5\nentropy = 0.179\nsamples = 37\nvalue = [36, 1]\nclass = No"] ;
68 -> 70 ;
71 [label="body_camera <= 0.5\nentropy = 0.722\nsamples = 5\nvalue = [4, 1]\nclass = No"] ;
70 -> 71 ;
72 [label="race <= 1.5\nentropy = 0.811\nsamples = 4\nvalue = [3, 1]\nclass = No"] ;
71 -> 72 ;
73 [label="entropy = 0.918\nsamples = 3\nvalue = [2, 1]\nclass = No"] ;
72 -> 73 ;
74 [label="entropy = 0.0\nsamples = 1\nvalue = [1, 0]\nclass = No"] ;
72 -> 74 ;
75 [label="entropy = 0.0\nsamples = 1\nvalue = [1, 0]\nclass = No"] ;
71 -> 75 ;
76 [label="entropy = 0.0\nsamples = 32\nvalue = [32, 0]\nclass = No"] ;
70 -> 76 ;
77 [label="age <= 41.5\nentropy = 0.918\nsamples = 3\nvalue = [2, 1]\nclass = No"] ;
67 -> 77 ;
78 [label="entropy = 0.0\nsamples = 2\nvalue = [2, 0]\nclass = No"] ;
77 -> 78 ;
79 [label="entropy = 0.0\nsamples = 1\nvalue = [0, 1]\nclass = Yes"] ;
77 -> 79 ;
80 [label="armed <= 74.5\nentropy = 0.592\nsamples = 161\nvalue = [138, 23]\nclass = No"] ;
4 -> 80 ;
81 [label="age <= 21.0\nentropy = 0.86\nsamples = 53\nvalue = [38, 15]\nclass = No"] ;
80 -> 81 ;
82 [label="entropy = 0.0\nsamples = 10\nvalue = [10, 0]\nclass = No"] ;
81 -> 82 ;
83 [label="body_camera <= 0.5\nentropy = 0.933\nsamples = 43\nvalue = [28.0, 15.0]\nclass = No"] ;
81 -> 83 ;
84 [label="age <= 46.0\nentropy = 0.977\nsamples = 34\nvalue = [20, 14]\nclass = No"] ;
83 -> 84 ;
85 [label="race <= 1.5\nentropy = 0.938\nsamples = 31\nvalue = [20, 11]\nclass = No"] ;
84 -> 85 ;
86 [label="age <= 24.5\nentropy = 0.998\nsamples = 17\nvalue = [9, 8]\nclass = No"] ;
85 -> 86 ;
87 [label="entropy = 0.0\nsamples = 3\nvalue = [0, 3]\nclass = Yes"] ;
86 -> 87 ;
88 [label="gender <= 0.5\nentropy = 0.94\nsamples = 14\nvalue = [9, 5]\nclass = No"] ;
86 -> 88 ;
89 [label="entropy = 0.0\nsamples = 1\nvalue = [0, 1]\nclass = Yes"] ;
88 -> 89 ;
90 [label="armed <= 70.5\nentropy = 0.89\nsamples = 13\nvalue = [9, 4]\nclass = No"] ;
88 -> 90 ;
91 [label="armed <= 53.5\nentropy = 0.946\nsamples = 11\nvalue = [7, 4]\nclass = No"] ;
90 -> 91 ;
92 [label="threat_level <= 0.5\nentropy = 0.764\nsamples = 9\nvalue = [7, 2]\nclass = No"] ;
91 -> 92 ;
93 [label="entropy = 0.0\nsamples = 5\nvalue = [5, 0]\nclass = No"] ;
92 -> 93 ;
94 [label="age <= 28.5\nentropy = 1.0\nsamples = 4\nvalue = [2, 2]\nclass = No"] ;
92 -> 94 ;
95 [label="entropy = 0.0\nsamples = 1\nvalue = [1, 0]\nclass = No"] ;
94 -> 95 ;
96 [label="flee <= 0.5\nentropy = 0.918\nsamples = 3\nvalue = [1, 2]\nclass = Yes"] ;
94 -> 96 ;
97 [label="entropy = 0.0\nsamples = 1\nvalue = [1, 0]\nclass = No"] ;
96 -> 97 ;
98 [label="entropy = 0.0\nsamples = 2\nvalue = [0, 2]\nclass = Yes"] ;
96 -> 98 ;
99 [label="entropy = 0.0\nsamples = 2\nvalue = [0, 2]\nclass = Yes"] ;
91 -> 99 ;
100 [label="entropy = 0.0\nsamples = 2\nvalue = [2, 0]\nclass = No"] ;
90 -> 100 ;
101 [label="age <= 36.5\nentropy = 0.75\nsamples = 14\nvalue = [11, 3]\nclass = No"] ;
85 -> 101 ;
102 [label="age <= 26.5\nentropy = 0.469\nsamples = 10\nvalue = [9, 1]\nclass = No"] ;
101 -> 102 ;
103 [label="armed <= 43.0\nentropy = 0.722\nsamples = 5\nvalue = [4, 1]\nclass = No"] ;
102 -> 103 ;
104 [label="age <= 24.0\nentropy = 1.0\nsamples = 2\nvalue = [1, 1]\nclass = No"] ;
103 -> 104 ;
105 [label="entropy = 0.0\nsamples = 1\nvalue = [1, 0]\nclass = No"] ;
104 -> 105 ;
106 [label="entropy = 0.0\nsamples = 1\nvalue = [0, 1]\nclass = Yes"] ;
104 -> 106 ;
107 [label="entropy = 0.0\nsamples = 3\nvalue = [3, 0]\nclass = No"] ;
103 -> 107 ;
108 [label="entropy = 0.0\nsamples = 5\nvalue = [5, 0]\nclass = No"] ;
102 -> 108 ;
109 [label="armed <= 57.0\nentropy = 1.0\nsamples = 4\nvalue = [2, 2]\nclass = No"] ;
101 -> 109 ;
110 [label="age <= 42.0\nentropy = 0.918\nsamples = 3\nvalue = [2, 1]\nclass = No"] ;
109 -> 110 ;
111 [label="entropy = 0.0\nsamples = 1\nvalue = [1, 0]\nclass = No"] ;
110 -> 111 ;
112 [label="age <= 44.5\nentropy = 1.0\nsamples = 2\nvalue = [1, 1]\nclass = No"] ;
110 -> 112 ;
113 [label="entropy = 0.0\nsamples = 1\nvalue = [0, 1]\nclass = Yes"] ;
112 -> 113 ;
114 [label="entropy = 0.0\nsamples = 1\nvalue = [1, 0]\nclass = No"] ;
112 -> 114 ;
115 [label="entropy = 0.0\nsamples = 1\nvalue = [0, 1]\nclass = Yes"] ;
109 -> 115 ;
116 [label="entropy = 0.0\nsamples = 3\nvalue = [0, 3]\nclass = Yes"] ;
84 -> 116 ;
117 [label="threat_level <= 0.5\nentropy = 0.503\nsamples = 9\nvalue = [8, 1]\nclass = No"] ;
83 -> 117 ;
118 [label="armed <= 49.5\nentropy = 0.918\nsamples = 3\nvalue = [2, 1]\nclass = No"] ;
117 -> 118 ;
119 [label="age <= 28.5\nentropy = 1.0\nsamples = 2\nvalue = [1, 1]\nclass = No"] ;
118 -> 119 ;
120 [label="entropy = 0.0\nsamples = 1\nvalue = [1, 0]\nclass = No"] ;
119 -> 120 ;
121 [label="entropy = 0.0\nsamples = 1\nvalue = [0, 1]\nclass = Yes"] ;
119 -> 121 ;
122 [label="entropy = 0.0\nsamples = 1\nvalue = [1, 0]\nclass = No"] ;
118 -> 122 ;
123 [label="entropy = 0.0\nsamples = 6\nvalue = [6, 0]\nclass = No"] ;
117 -> 123 ;
124 [label="flee <= 0.5\nentropy = 0.381\nsamples = 108\nvalue = [100, 8]\nclass = No"] ;
80 -> 124 ;
125 [label="threat_level <= 0.5\nentropy = 0.216\nsamples = 58\nvalue = [56, 2]\nclass = No"] ;
124 -> 125 ;
126 [label="body_camera <= 0.5\nentropy = 0.414\nsamples = 24\nvalue = [22, 2]\nclass = No"] ;
125 -> 126 ;
127 [label="age <= 30.5\nentropy = 0.286\nsamples = 20\nvalue = [19, 1]\nclass = No"] ;
126 -> 127 ;
128 [label="entropy = 0.0\nsamples = 15\nvalue = [15, 0]\nclass = No"] ;
127 -> 128 ;
129 [label="age <= 32.5\nentropy = 0.722\nsamples = 5\nvalue = [4, 1]\nclass = No"] ;
127 -> 129 ;
130 [label="entropy = 0.0\nsamples = 1\nvalue = [0, 1]\nclass = Yes"] ;
129 -> 130 ;
131 [label="entropy = 0.0\nsamples = 4\nvalue = [4, 0]\nclass = No"] ;
129 -> 131 ;
132 [label="age <= 26.0\nentropy = 0.811\nsamples = 4\nvalue = [3, 1]\nclass = No"] ;
126 -> 132 ;
133 [label="entropy = 0.0\nsamples = 1\nvalue = [0, 1]\nclass = Yes"] ;
132 -> 133 ;
134 [label="entropy = 0.0\nsamples = 3\nvalue = [3, 0]\nclass = No"] ;
132 -> 134 ;
135 [label="entropy = 0.0\nsamples = 34\nvalue = [34, 0]\nclass = No"] ;
125 -> 135 ;
136 [label="age <= 33.5\nentropy = 0.529\nsamples = 50\nvalue = [44, 6]\nclass = No"] ;
124 -> 136 ;
137 [label="threat_level <= 0.5\nentropy = 0.345\nsamples = 31\nvalue = [29, 2]\nclass = No"] ;
136 -> 137 ;
138 [label="armed <= 75.5\nentropy = 0.592\nsamples = 14\nvalue = [12, 2]\nclass = No"] ;
137 -> 138 ;
139 [label="age <= 27.5\nentropy = 0.722\nsamples = 10\nvalue = [8, 2]\nclass = No"] ;
138 -> 139 ;
140 [label="body_camera <= 0.5\nentropy = 0.863\nsamples = 7\nvalue = [5, 2]\nclass = No"] ;
139 -> 140 ;
141 [label="age <= 23.5\nentropy = 0.918\nsamples = 6\nvalue = [4, 2]\nclass = No"] ;
140 -> 141 ;
142 [label="age <= 18.0\nentropy = 0.722\nsamples = 5\nvalue = [4, 1]\nclass = No"] ;
141 -> 142 ;
143 [label="entropy = 0.0\nsamples = 1\nvalue = [1, 0]\nclass = No"] ;
142 -> 143 ;
144 [label="age <= 21.0\nentropy = 0.811\nsamples = 4\nvalue = [3, 1]\nclass = No"] ;
142 -> 144 ;
145 [label="entropy = 0.918\nsamples = 3\nvalue = [2, 1]\nclass = No"] ;
144 -> 145 ;
146 [label="entropy = 0.0\nsamples = 1\nvalue = [1, 0]\nclass = No"] ;
144 -> 146 ;
147 [label="entropy = 0.0\nsamples = 1\nvalue = [0, 1]\nclass = Yes"] ;
141 -> 147 ;
148 [label="entropy = 0.0\nsamples = 1\nvalue = [1, 0]\nclass = No"] ;
140 -> 148 ;
149 [label="entropy = 0.0\nsamples = 3\nvalue = [3, 0]\nclass = No"] ;
139 -> 149 ;
150 [label="entropy = 0.0\nsamples = 4\nvalue = [4, 0]\nclass = No"] ;
138 -> 150 ;
151 [label="entropy = 0.0\nsamples = 17\nvalue = [17, 0]\nclass = No"] ;
137 -> 151 ;
152 [label="race <= 1.5\nentropy = 0.742\nsamples = 19\nvalue = [15, 4]\nclass = No"] ;
136 -> 152 ;
153 [label="body_camera <= 0.5\nentropy = 0.391\nsamples = 13\nvalue = [12, 1]\nclass = No"] ;
152 -> 153 ;
154 [label="entropy = 0.0\nsamples = 10\nvalue = [10, 0]\nclass = No"] ;
153 -> 154 ;
155 [label="age <= 36.5\nentropy = 0.918\nsamples = 3\nvalue = [2, 1]\nclass = No"] ;
153 -> 155 ;
156 [label="entropy = 0.0\nsamples = 1\nvalue = [0, 1]\nclass = Yes"] ;
155 -> 156 ;
157 [label="entropy = 0.0\nsamples = 2\nvalue = [2, 0]\nclass = No"] ;
155 -> 157 ;
158 [label="age <= 41.5\nentropy = 1.0\nsamples = 6\nvalue = [3, 3]\nclass = No"] ;
152 -> 158 ;
159 [label="armed <= 75.5\nentropy = 0.811\nsamples = 4\nvalue = [1, 3]\nclass = Yes"] ;
158 -> 159 ;
160 [label="entropy = 0.0\nsamples = 2\nvalue = [0, 2]\nclass = Yes"] ;
159 -> 160 ;
161 [label="threat_level <= 1.5\nentropy = 1.0\nsamples = 2\nvalue = [1, 1]\nclass = No"] ;
159 -> 161 ;
162 [label="entropy = 0.0\nsamples = 1\nvalue = [0, 1]\nclass = Yes"] ;
161 -> 162 ;
163 [label="entropy = 0.0\nsamples = 1\nvalue = [1, 0]\nclass = No"] ;
161 -> 163 ;
164 [label="entropy = 0.0\nsamples = 2\nvalue = [2, 0]\nclass = No"] ;
158 -> 164 ;
165 [label="armed <= 74.5\nentropy = 0.583\nsamples = 387\nvalue = [333, 54]\nclass = No"] ;
3 -> 165 ;
166 [label="age <= 17.5\nentropy = 0.637\nsamples = 304\nvalue = [255, 49]\nclass = No"] ;
165 -> 166 ;
167 [label="entropy = 0.0\nsamples = 3\nvalue = [0, 3]\nclass = Yes"] ;
166 -> 167 ;
168 [label="armed <= 73.5\nentropy = 0.617\nsamples = 301\nvalue = [255, 46]\nclass = No"] ;
166 -> 168 ;
169 [label="age <= 58.5\nentropy = 0.581\nsamples = 288\nvalue = [248, 40]\nclass = No"] ;
168 -> 169 ;
170 [label="age <= 55.5\nentropy = 0.598\nsamples = 275\nvalue = [235, 40]\nclass = No"] ;
169 -> 170 ;
171 [label="age <= 20.5\nentropy = 0.576\nsamples = 270\nvalue = [233, 37]\nclass = No"] ;
170 -> 171 ;
172 [label="entropy = 0.0\nsamples = 11\nvalue = [11, 0]\nclass = No"] ;
171 -> 172 ;
173 [label="age <= 22.5\nentropy = 0.592\nsamples = 259\nvalue = [222, 37]\nclass = No"] ;
171 -> 173 ;
174 [label="race <= 4.0\nentropy = 0.985\nsamples = 7\nvalue = [4, 3]\nclass = No"] ;
173 -> 174 ;
175 [label="entropy = 0.0\nsamples = 1\nvalue = [0, 1]\nclass = Yes"] ;
174 -> 175 ;
176 [label="flee <= 0.5\nentropy = 0.918\nsamples = 6\nvalue = [4, 2]\nclass = No"] ;
174 -> 176 ;
177 [label="threat_level <= 0.5\nentropy = 1.0\nsamples = 2\nvalue = [1, 1]\nclass = No"] ;
176 -> 177 ;
178 [label="entropy = 0.0\nsamples = 1\nvalue = [1, 0]\nclass = No"] ;
177 -> 178 ;
179 [label="entropy = 0.0\nsamples = 1\nvalue = [0, 1]\nclass = Yes"] ;
177 -> 179 ;
180 [label="age <= 21.5\nentropy = 0.811\nsamples = 4\nvalue = [3, 1]\nclass = No"] ;
176 -> 180 ;
181 [label="entropy = 0.0\nsamples = 2\nvalue = [2, 0]\nclass = No"] ;
180 -> 181 ;
182 [label="threat_level <= 0.5\nentropy = 1.0\nsamples = 2\nvalue = [1, 1]\nclass = No"] ;
180 -> 182 ;
183 [label="entropy = 0.0\nsamples = 1\nvalue = [0, 1]\nclass = Yes"] ;
182 -> 183 ;
184 [label="entropy = 0.0\nsamples = 1\nvalue = [1, 0]\nclass = No"] ;
182 -> 184 ;
185 [label="age <= 50.5\nentropy = 0.571\nsamples = 252\nvalue = [218, 34]\nclass = No"] ;
173 -> 185 ;
186 [label="gender <= 0.5\nentropy = 0.587\nsamples = 241\nvalue = [207, 34]\nclass = No"] ;
185 -> 186 ;
187 [label="age <= 24.5\nentropy = 0.89\nsamples = 13\nvalue = [9, 4]\nclass = No"] ;
186 -> 187 ;
188 [label="entropy = 0.0\nsamples = 1\nvalue = [0, 1]\nclass = Yes"] ;
187 -> 188 ;
189 [label="age <= 35.0\nentropy = 0.811\nsamples = 12\nvalue = [9, 3]\nclass = No"] ;
187 -> 189 ;
190 [label="entropy = 0.0\nsamples = 5\nvalue = [5, 0]\nclass = No"] ;
189 -> 190 ;
191 [label="race <= 4.0\nentropy = 0.985\nsamples = 7\nvalue = [4, 3]\nclass = No"] ;
189 -> 191 ;
192 [label="entropy = 0.0\nsamples = 1\nvalue = [0, 1]\nclass = Yes"] ;
191 -> 192 ;
193 [label="age <= 43.0\nentropy = 0.918\nsamples = 6\nvalue = [4, 2]\nclass = No"] ;
191 -> 193 ;
194 [label="entropy = 0.0\nsamples = 3\nvalue = [3, 0]\nclass = No"] ;
193 -> 194 ;
195 [label="threat_level <= 0.5\nentropy = 0.918\nsamples = 3\nvalue = [1, 2]\nclass = Yes"] ;
193 -> 195 ;
196 [label="entropy = 0.0\nsamples = 2\nvalue = [0, 2]\nclass = Yes"] ;
195 -> 196 ;
197 [label="entropy = 0.0\nsamples = 1\nvalue = [1, 0]\nclass = No"] ;
195 -> 197 ;
198 [label="age <= 37.5\nentropy = 0.562\nsamples = 228\nvalue = [198, 30]\nclass = No"] ;
186 -> 198 ;
199 [label="age <= 28.5\nentropy = 0.622\nsamples = 155\nvalue = [131, 24]\nclass = No"] ;
198 -> 199 ;
200 [label="body_camera <= 0.5\nentropy = 0.429\nsamples = 57\nvalue = [52, 5]\nclass = No"] ;
199 -> 200 ;
201 [label="armed <= 39.5\nentropy = 0.475\nsamples = 49\nvalue = [44, 5]\nclass = No"] ;
200 -> 201 ;
202 [label="threat_level <= 0.5\nentropy = 0.384\nsamples = 40\nvalue = [37, 3]\nclass = No"] ;
201 -> 202 ;
203 [label="age <= 27.5\nentropy = 0.422\nsamples = 35\nvalue = [32, 3]\nclass = No"] ;
202 -> 203 ;
204 [label="race <= 4.0\nentropy = 0.469\nsamples = 30\nvalue = [27, 3]\nclass = No"] ;
203 -> 204 ;
205 [label="entropy = 0.0\nsamples = 2\nvalue = [2, 0]\nclass = No"] ;
204 -> 205 ;
206 [label="age <= 26.5\nentropy = 0.491\nsamples = 28\nvalue = [25, 3]\nclass = No"] ;
204 -> 206 ;
207 [label="flee <= 0.5\nentropy = 0.426\nsamples = 23\nvalue = [21, 2]\nclass = No"] ;
206 -> 207 ;
208 [label="age <= 25.5\nentropy = 0.619\nsamples = 13\nvalue = [11, 2]\nclass = No"] ;
207 -> 208 ;
209 [label="age <= 24.5\nentropy = 0.722\nsamples = 10\nvalue = [8, 2]\nclass = No"] ;
208 -> 209 ;
210 [label="age <= 23.5\nentropy = 0.592\nsamples = 7\nvalue = [6, 1]\nclass = No"] ;
209 -> 210 ;
211 [label="entropy = 0.811\nsamples = 4\nvalue = [3, 1]\nclass = No"] ;
210 -> 211 ;
212 [label="entropy = 0.0\nsamples = 3\nvalue = [3, 0]\nclass = No"] ;
210 -> 212 ;
213 [label="entropy = 0.918\nsamples = 3\nvalue = [2, 1]\nclass = No"] ;
209 -> 213 ;
214 [label="entropy = 0.0\nsamples = 3\nvalue = [3, 0]\nclass = No"] ;
208 -> 214 ;
215 [label="entropy = 0.0\nsamples = 10\nvalue = [10, 0]\nclass = No"] ;
207 -> 215 ;
216 [label="flee <= 0.5\nentropy = 0.722\nsamples = 5\nvalue = [4, 1]\nclass = No"] ;
206 -> 216 ;
217 [label="entropy = 0.0\nsamples = 2\nvalue = [2, 0]\nclass = No"] ;
216 -> 217 ;
218 [label="entropy = 0.918\nsamples = 3\nvalue = [2, 1]\nclass = No"] ;
216 -> 218 ;
219 [label="entropy = 0.0\nsamples = 5\nvalue = [5, 0]\nclass = No"] ;
203 -> 219 ;
220 [label="entropy = 0.0\nsamples = 5\nvalue = [5, 0]\nclass = No"] ;
202 -> 220 ;
221 [label="age <= 25.5\nentropy = 0.764\nsamples = 9\nvalue = [7, 2]\nclass = No"] ;
201 -> 221 ;
222 [label="entropy = 0.0\nsamples = 3\nvalue = [3, 0]\nclass = No"] ;
221 -> 222 ;
223 [label="armed <= 44.0\nentropy = 0.918\nsamples = 6\nvalue = [4, 2]\nclass = No"] ;
221 -> 223 ;
224 [label="age <= 26.5\nentropy = 0.971\nsamples = 5\nvalue = [3, 2]\nclass = No"] ;
223 -> 224 ;
225 [label="entropy = 1.0\nsamples = 2\nvalue = [1, 1]\nclass = No"] ;
224 -> 225 ;
226 [label="entropy = 0.918\nsamples = 3\nvalue = [2, 1]\nclass = No"] ;
224 -> 226 ;
227 [label="entropy = 0.0\nsamples = 1\nvalue = [1, 0]\nclass = No"] ;
223 -> 227 ;
228 [label="entropy = 0.0\nsamples = 8\nvalue = [8, 0]\nclass = No"] ;
200 -> 228 ;
229 [label="age <= 31.5\nentropy = 0.71\nsamples = 98\nvalue = [79, 19]\nclass = No"] ;
199 -> 229 ;
230 [label="body_camera <= 0.5\nentropy = 0.837\nsamples = 30\nvalue = [22, 8]\nclass = No"] ;
229 -> 230 ;
231 [label="race <= 4.0\nentropy = 0.863\nsamples = 28\nvalue = [20, 8]\nclass = No"] ;
230 -> 231 ;
232 [label="entropy = 0.0\nsamples = 1\nvalue = [1, 0]\nclass = No"] ;
231 -> 232 ;
233 [label="manner_of_death <= 0.5\nentropy = 0.877\nsamples = 27\nvalue = [19, 8]\nclass = No"] ;
231 -> 233 ;
234 [label="armed <= 44.5\nentropy = 0.89\nsamples = 26\nvalue = [18, 8]\nclass = No"] ;
233 -> 234 ;
235 [label="age <= 30.5\nentropy = 0.904\nsamples = 25\nvalue = [17, 8]\nclass = No"] ;
234 -> 235 ;
236 [label="flee <= 0.5\nentropy = 0.863\nsamples = 21\nvalue = [15, 6]\nclass = No"] ;
235 -> 236 ;
237 [label="threat_level <= 0.5\nentropy = 0.722\nsamples = 10\nvalue = [8, 2]\nclass = No"] ;
236 -> 237 ;
238 [label="age <= 29.5\nentropy = 0.544\nsamples = 8\nvalue = [7, 1]\nclass = No"] ;
237 -> 238 ;
239 [label="entropy = 0.0\nsamples = 2\nvalue = [2, 0]\nclass = No"] ;
238 -> 239 ;
240 [label="entropy = 0.65\nsamples = 6\nvalue = [5, 1]\nclass = No"] ;
238 -> 240 ;
241 [label="age <= 29.5\nentropy = 1.0\nsamples = 2\nvalue = [1, 1]\nclass = No"] ;
237 -> 241 ;
242 [label="entropy = 0.0\nsamples = 1\nvalue = [0, 1]\nclass = Yes"] ;
241 -> 242 ;
243 [label="entropy = 0.0\nsamples = 1\nvalue = [1, 0]\nclass = No"] ;
241 -> 243 ;
244 [label="threat_level <= 0.5\nentropy = 0.946\nsamples = 11\nvalue = [7, 4]\nclass = No"] ;
236 -> 244 ;
245 [label="armed <= 35.5\nentropy = 0.985\nsamples = 7\nvalue = [4, 3]\nclass = No"] ;
244 -> 245 ;
246 [label="age <= 29.5\nentropy = 0.918\nsamples = 6\nvalue = [4, 2]\nclass = No"] ;
245 -> 246 ;
247 [label="entropy = 0.918\nsamples = 3\nvalue = [2, 1]\nclass = No"] ;
246 -> 247 ;
248 [label="entropy = 0.918\nsamples = 3\nvalue = [2, 1]\nclass = No"] ;
246 -> 248 ;
249 [label="entropy = 0.0\nsamples = 1\nvalue = [0, 1]\nclass = Yes"] ;
245 -> 249 ;
250 [label="armed <= 35.5\nentropy = 0.811\nsamples = 4\nvalue = [3, 1]\nclass = No"] ;
244 -> 250 ;
251 [label="age <= 29.5\nentropy = 0.918\nsamples = 3\nvalue = [2, 1]\nclass = No"] ;
250 -> 251 ;
252 [label="entropy = 0.0\nsamples = 1\nvalue = [1, 0]\nclass = No"] ;
251 -> 252 ;
253 [label="entropy = 1.0\nsamples = 2\nvalue = [1, 1]\nclass = No"] ;
251 -> 253 ;
254 [label="entropy = 0.0\nsamples = 1\nvalue = [1, 0]\nclass = No"] ;
250 -> 254 ;
255 [label="threat_level <= 0.5\nentropy = 1.0\nsamples = 4\nvalue = [2, 2]\nclass = No"] ;
235 -> 255 ;
256 [label="flee <= 0.5\nentropy = 0.918\nsamples = 3\nvalue = [1, 2]\nclass = Yes"] ;
255 -> 256 ;
257 [label="entropy = 0.0\nsamples = 1\nvalue = [0, 1]\nclass = Yes"] ;
256 -> 257 ;
258 [label="entropy = 1.0\nsamples = 2\nvalue = [1, 1]\nclass = No"] ;
256 -> 258 ;
259 [label="entropy = 0.0\nsamples = 1\nvalue = [1, 0]\nclass = No"] ;
255 -> 259 ;
260 [label="entropy = 0.0\nsamples = 1\nvalue = [1, 0]\nclass = No"] ;
234 -> 260 ;
261 [label="entropy = 0.0\nsamples = 1\nvalue = [1, 0]\nclass = No"] ;
233 -> 261 ;
262 [label="entropy = 0.0\nsamples = 2\nvalue = [2, 0]\nclass = No"] ;
230 -> 262 ;
263 [label="threat_level <= 1.5\nentropy = 0.639\nsamples = 68\nvalue = [57, 11]\nclass = No"] ;
229 -> 263 ;
264 [label="armed <= 52.5\nentropy = 0.65\nsamples = 66\nvalue = [55, 11]\nclass = No"] ;
263 -> 264 ;
265 [label="manner_of_death <= 0.5\nentropy = 0.662\nsamples = 64\nvalue = [53, 11]\nclass = No"] ;
264 -> 265 ;
266 [label="age <= 35.5\nentropy = 0.644\nsamples = 61\nvalue = [51, 10]\nclass = No"] ;
265 -> 266 ;
267 [label="age <= 33.5\nentropy = 0.696\nsamples = 48\nvalue = [39, 9]\nclass = No"] ;
266 -> 267 ;
268 [label="armed <= 35.5\nentropy = 0.575\nsamples = 22\nvalue = [19, 3]\nclass = No"] ;
267 -> 268 ;
269 [label="race <= 4.5\nentropy = 0.696\nsamples = 16\nvalue = [13, 3]\nclass = No"] ;
268 -> 269 ;
270 [label="entropy = 0.0\nsamples = 3\nvalue = [3, 0]\nclass = No"] ;
269 -> 270 ;
271 [label="body_camera <= 0.5\nentropy = 0.779\nsamples = 13\nvalue = [10, 3]\nclass = No"] ;
269 -> 271 ;
272 [label="threat_level <= 0.5\nentropy = 0.811\nsamples = 12\nvalue = [9, 3]\nclass = No"] ;
271 -> 272 ;
273 [label="flee <= 0.5\nentropy = 0.722\nsamples = 10\nvalue = [8, 2]\nclass = No"] ;
272 -> 273 ;
274 [label="age <= 32.5\nentropy = 0.65\nsamples = 6\nvalue = [5, 1]\nclass = No"] ;
273 -> 274 ;
275 [label="entropy = 0.918\nsamples = 3\nvalue = [2, 1]\nclass = No"] ;
274 -> 275 ;
276 [label="entropy = 0.0\nsamples = 3\nvalue = [3, 0]\nclass = No"] ;
274 -> 276 ;
277 [label="age <= 32.5\nentropy = 0.811\nsamples = 4\nvalue = [3, 1]\nclass = No"] ;
273 -> 277 ;
278 [label="entropy = 0.0\nsamples = 2\nvalue = [2, 0]\nclass = No"] ;
277 -> 278 ;
279 [label="entropy = 1.0\nsamples = 2\nvalue = [1, 1]\nclass = No"] ;
277 -> 279 ;
280 [label="entropy = 1.0\nsamples = 2\nvalue = [1, 1]\nclass = No"] ;
272 -> 280 ;
281 [label="entropy = 0.0\nsamples = 1\nvalue = [1, 0]\nclass = No"] ;
271 -> 281 ;
282 [label="entropy = 0.0\nsamples = 6\nvalue = [6, 0]\nclass = No"] ;
268 -> 282 ;
283 [label="threat_level <= 0.5\nentropy = 0.779\nsamples = 26\nvalue = [20, 6]\nclass = No"] ;
267 -> 283 ;
284 [label="age <= 34.5\nentropy = 0.702\nsamples = 21\nvalue = [17, 4]\nclass = No"] ;
283 -> 284 ;
285 [label="race <= 4.0\nentropy = 0.881\nsamples = 10\nvalue = [7, 3]\nclass = No"] ;
284 -> 285 ;
286 [label="entropy = 0.0\nsamples = 1\nvalue = [1, 0]\nclass = No"] ;
285 -> 286 ;
287 [label="armed <= 35.5\nentropy = 0.918\nsamples = 9\nvalue = [6, 3]\nclass = No"] ;
285 -> 287 ;
288 [label="body_camera <= 0.5\nentropy = 0.954\nsamples = 8\nvalue = [5, 3]\nclass = No"] ;
287 -> 288 ;
289 [label="flee <= 0.5\nentropy = 0.918\nsamples = 6\nvalue = [4, 2]\nclass = No"] ;
288 -> 289 ;
290 [label="entropy = 0.971\nsamples = 5\nvalue = [3, 2]\nclass = No"] ;
289 -> 290 ;
291 [label="entropy = 0.0\nsamples = 1\nvalue = [1, 0]\nclass = No"] ;
289 -> 291 ;
292 [label="entropy = 1.0\nsamples = 2\nvalue = [1, 1]\nclass = No"] ;
288 -> 292 ;
293 [label="entropy = 0.0\nsamples = 1\nvalue = [1, 0]\nclass = No"] ;
287 -> 293 ;
294 [label="flee <= 0.5\nentropy = 0.439\nsamples = 11\nvalue = [10, 1]\nclass = No"] ;
284 -> 294 ;
295 [label="entropy = 0.544\nsamples = 8\nvalue = [7, 1]\nclass = No"] ;
294 -> 295 ;
296 [label="entropy = 0.0\nsamples = 3\nvalue = [3, 0]\nclass = No"] ;
294 -> 296 ;
297 [label="armed <= 35.5\nentropy = 0.971\nsamples = 5\nvalue = [3, 2]\nclass = No"] ;
283 -> 297 ;
298 [label="age <= 34.5\nentropy = 0.811\nsamples = 4\nvalue = [3, 1]\nclass = No"] ;
297 -> 298 ;
299 [label="entropy = 0.918\nsamples = 3\nvalue = [2, 1]\nclass = No"] ;
298 -> 299 ;
300 [label="entropy = 0.0\nsamples = 1\nvalue = [1, 0]\nclass = No"] ;
298 -> 300 ;
301 [label="entropy = 0.0\nsamples = 1\nvalue = [0, 1]\nclass = Yes"] ;
297 -> 301 ;
302 [label="age <= 36.5\nentropy = 0.391\nsamples = 13\nvalue = [12, 1]\nclass = No"] ;
266 -> 302 ;
303 [label="entropy = 0.0\nsamples = 7\nvalue = [7, 0]\nclass = No"] ;
302 -> 303 ;
304 [label="flee <= 0.5\nentropy = 0.65\nsamples = 6\nvalue = [5, 1]\nclass = No"] ;
302 -> 304 ;
305 [label="entropy = 1.0\nsamples = 2\nvalue = [1, 1]\nclass = No"] ;
304 -> 305 ;
306 [label="entropy = 0.0\nsamples = 4\nvalue = [4, 0]\nclass = No"] ;
304 -> 306 ;
307 [label="age <= 35.0\nentropy = 0.918\nsamples = 3\nvalue = [2, 1]\nclass = No"] ;
265 -> 307 ;
308 [label="entropy = 0.0\nsamples = 2\nvalue = [2, 0]\nclass = No"] ;
307 -> 308 ;
309 [label="entropy = 0.0\nsamples = 1\nvalue = [0, 1]\nclass = Yes"] ;
307 -> 309 ;
310 [label="entropy = 0.0\nsamples = 2\nvalue = [2, 0]\nclass = No"] ;
264 -> 310 ;
311 [label="entropy = 0.0\nsamples = 2\nvalue = [2, 0]\nclass = No"] ;
263 -> 311 ;
312 [label="armed <= 45.5\nentropy = 0.41\nsamples = 73\nvalue = [67, 6]\nclass = No"] ;
198 -> 312 ;
313 [label="age <= 43.5\nentropy = 0.364\nsamples = 72\nvalue = [67, 5]\nclass = No"] ;
312 -> 313 ;
314 [label="threat_level <= 0.5\nentropy = 0.165\nsamples = 41\nvalue = [40, 1]\nclass = No"] ;
313 -> 314 ;
315 [label="entropy = 0.0\nsamples = 34\nvalue = [34, 0]\nclass = No"] ;
314 -> 315 ;
316 [label="armed <= 35.5\nentropy = 0.592\nsamples = 7\nvalue = [6, 1]\nclass = No"] ;
314 -> 316 ;
317 [label="threat_level <= 1.5\nentropy = 0.811\nsamples = 4\nvalue = [3, 1]\nclass = No"] ;
316 -> 317 ;
318 [label="age <= 39.5\nentropy = 1.0\nsamples = 2\nvalue = [1, 1]\nclass = No"] ;
317 -> 318 ;
319 [label="entropy = 0.0\nsamples = 1\nvalue = [1, 0]\nclass = No"] ;
318 -> 319 ;
320 [label="entropy = 0.0\nsamples = 1\nvalue = [0, 1]\nclass = Yes"] ;
318 -> 320 ;
321 [label="entropy = 0.0\nsamples = 2\nvalue = [2, 0]\nclass = No"] ;
317 -> 321 ;
322 [label="entropy = 0.0\nsamples = 3\nvalue = [3, 0]\nclass = No"] ;
316 -> 322 ;
323 [label="armed <= 39.5\nentropy = 0.555\nsamples = 31\nvalue = [27, 4]\nclass = No"] ;
313 -> 323 ;
324 [label="threat_level <= 0.5\nentropy = 0.491\nsamples = 28\nvalue = [25, 3]\nclass = No"] ;
323 -> 324 ;
325 [label="age <= 48.5\nentropy = 0.559\nsamples = 23\nvalue = [20, 3]\nclass = No"] ;
324 -> 325 ;
326 [label="flee <= 0.5\nentropy = 0.454\nsamples = 21\nvalue = [19, 2]\nclass = No"] ;
325 -> 326 ;
327 [label="age <= 47.5\nentropy = 0.567\nsamples = 15\nvalue = [13, 2]\nclass = No"] ;
326 -> 327 ;
328 [label="age <= 46.5\nentropy = 0.684\nsamples = 11\nvalue = [9, 2]\nclass = No"] ;
327 -> 328 ;
329 [label="age <= 44.5\nentropy = 0.469\nsamples = 10\nvalue = [9, 1]\nclass = No"] ;
328 -> 329 ;
330 [label="entropy = 0.0\nsamples = 3\nvalue = [3, 0]\nclass = No"] ;
329 -> 330 ;
331 [label="age <= 45.5\nentropy = 0.592\nsamples = 7\nvalue = [6, 1]\nclass = No"] ;
329 -> 331 ;
332 [label="entropy = 0.722\nsamples = 5\nvalue = [4, 1]\nclass = No"] ;
331 -> 332 ;
333 [label="entropy = 0.0\nsamples = 2\nvalue = [2, 0]\nclass = No"] ;
331 -> 333 ;
334 [label="entropy = 0.0\nsamples = 1\nvalue = [0, 1]\nclass = Yes"] ;
328 -> 334 ;
335 [label="entropy = 0.0\nsamples = 4\nvalue = [4, 0]\nclass = No"] ;
327 -> 335 ;
336 [label="entropy = 0.0\nsamples = 6\nvalue = [6, 0]\nclass = No"] ;
326 -> 336 ;
337 [label="entropy = 1.0\nsamples = 2\nvalue = [1, 1]\nclass = No"] ;
325 -> 337 ;
338 [label="entropy = 0.0\nsamples = 5\nvalue = [5, 0]\nclass = No"] ;
324 -> 338 ;
339 [label="age <= 44.5\nentropy = 0.918\nsamples = 3\nvalue = [2, 1]\nclass = No"] ;
323 -> 339 ;
340 [label="entropy = 1.0\nsamples = 2\nvalue = [1, 1]\nclass = No"] ;
339 -> 340 ;
341 [label="entropy = 0.0\nsamples = 1\nvalue = [1, 0]\nclass = No"] ;
339 -> 341 ;
342 [label="entropy = 0.0\nsamples = 1\nvalue = [0, 1]\nclass = Yes"] ;
312 -> 342 ;
343 [label="entropy = 0.0\nsamples = 11\nvalue = [11, 0]\nclass = No"] ;
185 -> 343 ;
344 [label="armed <= 35.5\nentropy = 0.971\nsamples = 5\nvalue = [2, 3]\nclass = Yes"] ;
170 -> 344 ;
345 [label="threat_level <= 0.5\nentropy = 0.811\nsamples = 4\nvalue = [1, 3]\nclass = Yes"] ;
344 -> 345 ;
346 [label="entropy = 0.0\nsamples = 2\nvalue = [0, 2]\nclass = Yes"] ;
345 -> 346 ;
347 [label="body_camera <= 0.5\nentropy = 1.0\nsamples = 2\nvalue = [1, 1]\nclass = No"] ;
345 -> 347 ;
348 [label="entropy = 0.0\nsamples = 1\nvalue = [1, 0]\nclass = No"] ;
347 -> 348 ;
349 [label="entropy = 0.0\nsamples = 1\nvalue = [0, 1]\nclass = Yes"] ;
347 -> 349 ;
350 [label="entropy = 0.0\nsamples = 1\nvalue = [1, 0]\nclass = No"] ;
344 -> 350 ;
351 [label="entropy = 0.0\nsamples = 13\nvalue = [13, 0]\nclass = No"] ;
169 -> 351 ;
352 [label="age <= 47.5\nentropy = 0.996\nsamples = 13\nvalue = [7, 6]\nclass = No"] ;
168 -> 352 ;
353 [label="age <= 31.5\nentropy = 0.994\nsamples = 11\nvalue = [5, 6]\nclass = Yes"] ;
352 -> 353 ;
354 [label="age <= 22.0\nentropy = 0.722\nsamples = 5\nvalue = [4, 1]\nclass = No"] ;
353 -> 354 ;
355 [label="entropy = 0.0\nsamples = 1\nvalue = [0, 1]\nclass = Yes"] ;
354 -> 355 ;
356 [label="entropy = 0.0\nsamples = 4\nvalue = [4, 0]\nclass = No"] ;
354 -> 356 ;
357 [label="body_camera <= 0.5\nentropy = 0.65\nsamples = 6\nvalue = [1, 5]\nclass = Yes"] ;
353 -> 357 ;
358 [label="flee <= 0.5\nentropy = 0.811\nsamples = 4\nvalue = [1, 3]\nclass = Yes"] ;
357 -> 358 ;
359 [label="entropy = 0.0\nsamples = 1\nvalue = [0, 1]\nclass = Yes"] ;
358 -> 359 ;
360 [label="threat_level <= 0.5\nentropy = 0.918\nsamples = 3\nvalue = [1, 2]\nclass = Yes"] ;
358 -> 360 ;
361 [label="entropy = 1.0\nsamples = 2\nvalue = [1, 1]\nclass = No"] ;
360 -> 361 ;
362 [label="entropy = 0.0\nsamples = 1\nvalue = [0, 1]\nclass = Yes"] ;
360 -> 362 ;
363 [label="entropy = 0.0\nsamples = 2\nvalue = [0, 2]\nclass = Yes"] ;
357 -> 363 ;
364 [label="entropy = 0.0\nsamples = 2\nvalue = [2, 0]\nclass = No"] ;
352 -> 364 ;
365 [label="armed <= 79.0\nentropy = 0.328\nsamples = 83\nvalue = [78, 5]\nclass = No"] ;
165 -> 365 ;
366 [label="age <= 37.5\nentropy = 0.281\nsamples = 82\nvalue = [78, 4]\nclass = No"] ;
365 -> 366 ;
367 [label="age <= 36.5\nentropy = 0.376\nsamples = 55\nvalue = [51, 4]\nclass = No"] ;
366 -> 367 ;
368 [label="threat_level <= 0.5\nentropy = 0.31\nsamples = 54\nvalue = [51, 3]\nclass = No"] ;
367 -> 368 ;
369 [label="entropy = 0.0\nsamples = 17\nvalue = [17, 0]\nclass = No"] ;
368 -> 369 ;
370 [label="threat_level <= 1.5\nentropy = 0.406\nsamples = 37\nvalue = [34, 3]\nclass = No"] ;
368 -> 370 ;
371 [label="age <= 33.5\nentropy = 0.529\nsamples = 25\nvalue = [22, 3]\nclass = No"] ;
370 -> 371 ;
372 [label="age <= 32.0\nentropy = 0.61\nsamples = 20\nvalue = [17, 3]\nclass = No"] ;
371 -> 372 ;
373 [label="age <= 25.5\nentropy = 0.485\nsamples = 19\nvalue = [17, 2]\nclass = No"] ;
372 -> 373 ;
374 [label="flee <= 0.5\nentropy = 0.65\nsamples = 12\nvalue = [10, 2]\nclass = No"] ;
373 -> 374 ;
375 [label="age <= 20.5\nentropy = 0.469\nsamples = 10\nvalue = [9, 1]\nclass = No"] ;
374 -> 375 ;
376 [label="age <= 18.0\nentropy = 0.918\nsamples = 3\nvalue = [2, 1]\nclass = No"] ;
375 -> 376 ;
377 [label="entropy = 0.0\nsamples = 2\nvalue = [2, 0]\nclass = No"] ;
376 -> 377 ;
378 [label="entropy = 0.0\nsamples = 1\nvalue = [0, 1]\nclass = Yes"] ;
376 -> 378 ;
379 [label="entropy = 0.0\nsamples = 7\nvalue = [7, 0]\nclass = No"] ;
375 -> 379 ;
380 [label="armed <= 76.0\nentropy = 1.0\nsamples = 2\nvalue = [1, 1]\nclass = No"] ;
374 -> 380 ;
381 [label="entropy = 0.0\nsamples = 1\nvalue = [0, 1]\nclass = Yes"] ;
380 -> 381 ;
382 [label="entropy = 0.0\nsamples = 1\nvalue = [1, 0]\nclass = No"] ;
380 -> 382 ;
383 [label="entropy = 0.0\nsamples = 7\nvalue = [7, 0]\nclass = No"] ;
373 -> 383 ;
384 [label="entropy = 0.0\nsamples = 1\nvalue = [0, 1]\nclass = Yes"] ;
372 -> 384 ;
385 [label="entropy = 0.0\nsamples = 5\nvalue = [5, 0]\nclass = No"] ;
371 -> 385 ;
386 [label="entropy = 0.0\nsamples = 12\nvalue = [12, 0]\nclass = No"] ;
370 -> 386 ;
387 [label="entropy = 0.0\nsamples = 1\nvalue = [0, 1]\nclass = Yes"] ;
367 -> 387 ;
388 [label="entropy = 0.0\nsamples = 27\nvalue = [27, 0]\nclass = No"] ;
366 -> 388 ;
389 [label="entropy = 0.0\nsamples = 1\nvalue = [0, 1]\nclass = Yes"] ;
365 -> 389 ;
390 [label="race <= 3.5\nentropy = 0.878\nsamples = 2080\nvalue = [1461, 619]\nclass = No"] ;
0 -> 390 [labeldistance=2.5, labelangle=-45, headlabel="False"] ;
391 [label="armed <= 33.5\nentropy = 0.767\nsamples = 947\nvalue = [735, 212]\nclass = No"] ;
390 -> 391 ;
392 [label="armed <= 7.5\nentropy = 0.639\nsamples = 543\nvalue = [455, 88]\nclass = No"] ;
391 -> 392 ;
393 [label="manner_of_death <= 0.5\nentropy = 0.989\nsamples = 16\nvalue = [9, 7]\nclass = No"] ;
392 -> 393 ;
394 [label="race <= 0.5\nentropy = 0.996\nsamples = 13\nvalue = [6, 7]\nclass = Yes"] ;
393 -> 394 ;
395 [label="entropy = 0.0\nsamples = 2\nvalue = [0, 2]\nclass = Yes"] ;
394 -> 395 ;
396 [label="age <= 33.5\nentropy = 0.994\nsamples = 11\nvalue = [6, 5]\nclass = No"] ;
394 -> 396 ;
397 [label="race <= 2.5\nentropy = 0.811\nsamples = 4\nvalue = [1, 3]\nclass = Yes"] ;
396 -> 397 ;
398 [label="entropy = 0.0\nsamples = 3\nvalue = [0, 3]\nclass = Yes"] ;
397 -> 398 ;
399 [label="entropy = 0.0\nsamples = 1\nvalue = [1, 0]\nclass = No"] ;
397 -> 399 ;
400 [label="age <= 55.5\nentropy = 0.863\nsamples = 7\nvalue = [5, 2]\nclass = No"] ;
396 -> 400 ;
401 [label="age <= 39.0\nentropy = 0.65\nsamples = 6\nvalue = [5, 1]\nclass = No"] ;
400 -> 401 ;
402 [label="entropy = 0.0\nsamples = 3\nvalue = [3, 0]\nclass = No"] ;
401 -> 402 ;
403 [label="race <= 1.5\nentropy = 0.918\nsamples = 3\nvalue = [2, 1]\nclass = No"] ;
401 -> 403 ;
404 [label="entropy = 0.0\nsamples = 2\nvalue = [2, 0]\nclass = No"] ;
403 -> 404 ;
405 [label="entropy = 0.0\nsamples = 1\nvalue = [0, 1]\nclass = Yes"] ;
403 -> 405 ;
406 [label="entropy = 0.0\nsamples = 1\nvalue = [0, 1]\nclass = Yes"] ;
400 -> 406 ;
407 [label="entropy = 0.0\nsamples = 3\nvalue = [3, 0]\nclass = No"] ;
393 -> 407 ;
408 [label="age <= 63.5\nentropy = 0.619\nsamples = 527\nvalue = [446, 81]\nclass = No"] ;
392 -> 408 ;
409 [label="age <= 56.0\nentropy = 0.606\nsamples = 518\nvalue = [441, 77]\nclass = No"] ;
408 -> 409 ;
410 [label="age <= 52.5\nentropy = 0.616\nsamples = 505\nvalue = [428, 77]\nclass = No"] ;
409 -> 410 ;
411 [label="age <= 46.5\nentropy = 0.601\nsamples = 492\nvalue = [420, 72]\nclass = No"] ;
410 -> 411 ;
412 [label="race <= 1.5\nentropy = 0.621\nsamples = 460\nvalue = [389, 71]\nclass = No"] ;
411 -> 412 ;
413 [label="age <= 28.5\nentropy = 0.544\nsamples = 272\nvalue = [238, 34]\nclass = No"] ;
412 -> 413 ;
414 [label="armed <= 27.0\nentropy = 0.349\nsamples = 122\nvalue = [114, 8]\nclass = No"] ;
413 -> 414 ;
415 [label="entropy = 0.0\nsamples = 1\nvalue = [0, 1]\nclass = Yes"] ;
414 -> 415 ;
416 [label="age <= 26.5\nentropy = 0.319\nsamples = 121\nvalue = [114, 7]\nclass = No"] ;
414 -> 416 ;
417 [label="age <= 18.5\nentropy = 0.369\nsamples = 99\nvalue = [92, 7]\nclass = No"] ;
416 -> 417 ;
418 [label="entropy = 0.0\nsamples = 20\nvalue = [20, 0]\nclass = No"] ;
417 -> 418 ;
419 [label="age <= 25.5\nentropy = 0.432\nsamples = 79\nvalue = [72, 7]\nclass = No"] ;
417 -> 419 ;
420 [label="threat_level <= 0.5\nentropy = 0.367\nsamples = 71\nvalue = [66, 5]\nclass = No"] ;
419 -> 420 ;
421 [label="age <= 21.5\nentropy = 0.225\nsamples = 55\nvalue = [53, 2]\nclass = No"] ;
420 -> 421 ;
422 [label="age <= 19.5\nentropy = 0.567\nsamples = 15\nvalue = [13, 2]\nclass = No"] ;
421 -> 422 ;
423 [label="entropy = 0.0\nsamples = 4\nvalue = [4, 0]\nclass = No"] ;
422 -> 423 ;
424 [label="body_camera <= 0.5\nentropy = 0.684\nsamples = 11\nvalue = [9, 2]\nclass = No"] ;
422 -> 424 ;
425 [label="race <= 0.5\nentropy = 0.764\nsamples = 9\nvalue = [7, 2]\nclass = No"] ;
424 -> 425 ;
426 [label="entropy = 0.0\nsamples = 1\nvalue = [1, 0]\nclass = No"] ;
425 -> 426 ;
427 [label="age <= 20.5\nentropy = 0.811\nsamples = 8\nvalue = [6, 2]\nclass = No"] ;
425 -> 427 ;
428 [label="entropy = 0.65\nsamples = 6\nvalue = [5, 1]\nclass = No"] ;
427 -> 428 ;
429 [label="entropy = 1.0\nsamples = 2\nvalue = [1, 1]\nclass = No"] ;
427 -> 429 ;
430 [label="entropy = 0.0\nsamples = 2\nvalue = [2, 0]\nclass = No"] ;
424 -> 430 ;
431 [label="entropy = 0.0\nsamples = 40\nvalue = [40, 0]\nclass = No"] ;
421 -> 431 ;
432 [label="age <= 20.0\nentropy = 0.696\nsamples = 16\nvalue = [13, 3]\nclass = No"] ;
420 -> 432 ;
433 [label="entropy = 0.0\nsamples = 1\nvalue = [0, 1]\nclass = Yes"] ;
432 -> 433 ;
434 [label="age <= 22.5\nentropy = 0.567\nsamples = 15\nvalue = [13, 2]\nclass = No"] ;
432 -> 434 ;
435 [label="entropy = 0.0\nsamples = 5\nvalue = [5, 0]\nclass = No"] ;
434 -> 435 ;
436 [label="body_camera <= 0.5\nentropy = 0.722\nsamples = 10\nvalue = [8, 2]\nclass = No"] ;
434 -> 436 ;
437 [label="threat_level <= 1.5\nentropy = 0.918\nsamples = 6\nvalue = [4, 2]\nclass = No"] ;
436 -> 437 ;
438 [label="flee <= 2.5\nentropy = 0.971\nsamples = 5\nvalue = [3, 2]\nclass = No"] ;
437 -> 438 ;
439 [label="age <= 24.0\nentropy = 1.0\nsamples = 4\nvalue = [2, 2]\nclass = No"] ;
438 -> 439 ;
440 [label="entropy = 0.0\nsamples = 1\nvalue = [0, 1]\nclass = Yes"] ;
439 -> 440 ;
441 [label="entropy = 0.918\nsamples = 3\nvalue = [2, 1]\nclass = No"] ;
439 -> 441 ;
442 [label="entropy = 0.0\nsamples = 1\nvalue = [1, 0]\nclass = No"] ;
438 -> 442 ;
443 [label="entropy = 0.0\nsamples = 1\nvalue = [1, 0]\nclass = No"] ;
437 -> 443 ;
444 [label="entropy = 0.0\nsamples = 4\nvalue = [4, 0]\nclass = No"] ;
436 -> 444 ;
445 [label="threat_level <= 0.5\nentropy = 0.811\nsamples = 8\nvalue = [6, 2]\nclass = No"] ;
419 -> 445 ;
446 [label="body_camera <= 0.5\nentropy = 0.918\nsamples = 6\nvalue = [4, 2]\nclass = No"] ;
445 -> 446 ;
447 [label="entropy = 0.811\nsamples = 4\nvalue = [3, 1]\nclass = No"] ;
446 -> 447 ;
448 [label="entropy = 1.0\nsamples = 2\nvalue = [1, 1]\nclass = No"] ;
446 -> 448 ;
449 [label="entropy = 0.0\nsamples = 2\nvalue = [2, 0]\nclass = No"] ;
445 -> 449 ;
450 [label="entropy = 0.0\nsamples = 22\nvalue = [22, 0]\nclass = No"] ;
416 -> 450 ;
451 [label="flee <= 2.5\nentropy = 0.665\nsamples = 150\nvalue = [124, 26]\nclass = No"] ;
413 -> 451 ;
452 [label="armed <= 28.0\nentropy = 0.69\nsamples = 141\nvalue = [115, 26]\nclass = No"] ;
451 -> 452 ;
453 [label="entropy = 0.0\nsamples = 3\nvalue = [3, 0]\nclass = No"] ;
452 -> 453 ;
454 [label="body_camera <= 0.5\nentropy = 0.698\nsamples = 138\nvalue = [112, 26]\nclass = No"] ;
452 -> 454 ;
455 [label="age <= 32.5\nentropy = 0.671\nsamples = 125\nvalue = [103, 22]\nclass = No"] ;
454 -> 455 ;
456 [label="race <= 0.5\nentropy = 0.785\nsamples = 47\nvalue = [36, 11]\nclass = No"] ;
455 -> 456 ;
457 [label="entropy = 0.0\nsamples = 2\nvalue = [2, 0]\nclass = No"] ;
456 -> 457 ;
458 [label="gender <= 0.5\nentropy = 0.802\nsamples = 45\nvalue = [34, 11]\nclass = No"] ;
456 -> 458 ;
459 [label="age <= 31.5\nentropy = 1.0\nsamples = 2\nvalue = [1, 1]\nclass = No"] ;
458 -> 459 ;
460 [label="entropy = 0.0\nsamples = 1\nvalue = [1, 0]\nclass = No"] ;
459 -> 460 ;
461 [label="entropy = 0.0\nsamples = 1\nvalue = [0, 1]\nclass = Yes"] ;
459 -> 461 ;
462 [label="threat_level <= 1.5\nentropy = 0.782\nsamples = 43\nvalue = [33, 10]\nclass = No"] ;
458 -> 462 ;
463 [label="threat_level <= 0.5\nentropy = 0.792\nsamples = 42\nvalue = [32, 10]\nclass = No"] ;
462 -> 463 ;
464 [label="age <= 30.5\nentropy = 0.764\nsamples = 36\nvalue = [28, 8]\nclass = No"] ;
463 -> 464 ;
465 [label="age <= 29.5\nentropy = 0.874\nsamples = 17\nvalue = [12, 5]\nclass = No"] ;
464 -> 465 ;
466 [label="entropy = 0.918\nsamples = 9\nvalue = [6, 3]\nclass = No"] ;
465 -> 466 ;
467 [label="entropy = 0.811\nsamples = 8\nvalue = [6, 2]\nclass = No"] ;
465 -> 467 ;
468 [label="manner_of_death <= 0.5\nentropy = 0.629\nsamples = 19\nvalue = [16, 3]\nclass = No"] ;
464 -> 468 ;
469 [label="age <= 31.5\nentropy = 0.65\nsamples = 18\nvalue = [15, 3]\nclass = No"] ;
468 -> 469 ;
470 [label="entropy = 0.684\nsamples = 11\nvalue = [9, 2]\nclass = No"] ;
469 -> 470 ;
471 [label="entropy = 0.592\nsamples = 7\nvalue = [6, 1]\nclass = No"] ;
469 -> 471 ;
472 [label="entropy = 0.0\nsamples = 1\nvalue = [1, 0]\nclass = No"] ;
468 -> 472 ;
473 [label="age <= 30.0\nentropy = 0.918\nsamples = 6\nvalue = [4, 2]\nclass = No"] ;
463 -> 473 ;
474 [label="entropy = 0.0\nsamples = 3\nvalue = [3, 0]\nclass = No"] ;
473 -> 474 ;
475 [label="age <= 31.5\nentropy = 0.918\nsamples = 3\nvalue = [1, 2]\nclass = Yes"] ;
473 -> 475 ;
476 [label="entropy = 0.0\nsamples = 1\nvalue = [0, 1]\nclass = Yes"] ;
475 -> 476 ;
477 [label="entropy = 1.0\nsamples = 2\nvalue = [1, 1]\nclass = No"] ;
475 -> 477 ;
478 [label="entropy = 0.0\nsamples = 1\nvalue = [1, 0]\nclass = No"] ;
462 -> 478 ;
479 [label="age <= 33.5\nentropy = 0.587\nsamples = 78\nvalue = [67, 11]\nclass = No"] ;
455 -> 479 ;
480 [label="entropy = 0.0\nsamples = 14\nvalue = [14, 0]\nclass = No"] ;
479 -> 480 ;
481 [label="threat_level <= 0.5\nentropy = 0.662\nsamples = 64\nvalue = [53, 11]\nclass = No"] ;
479 -> 481 ;
482 [label="age <= 41.5\nentropy = 0.701\nsamples = 58\nvalue = [47, 11]\nclass = No"] ;
481 -> 482 ;
483 [label="age <= 38.5\nentropy = 0.61\nsamples = 40\nvalue = [34, 6]\nclass = No"] ;
482 -> 483 ;
484 [label="race <= 0.5\nentropy = 0.722\nsamples = 30\nvalue = [24, 6]\nclass = No"] ;
483 -> 484 ;
485 [label="entropy = 0.0\nsamples = 2\nvalue = [2, 0]\nclass = No"] ;
484 -> 485 ;
486 [label="age <= 34.5\nentropy = 0.75\nsamples = 28\nvalue = [22, 6]\nclass = No"] ;
484 -> 486 ;
487 [label="entropy = 0.863\nsamples = 7\nvalue = [5, 2]\nclass = No"] ;
486 -> 487 ;
488 [label="age <= 37.5\nentropy = 0.702\nsamples = 21\nvalue = [17, 4]\nclass = No"] ;
486 -> 488 ;
489 [label="age <= 35.5\nentropy = 0.592\nsamples = 14\nvalue = [12, 2]\nclass = No"] ;
488 -> 489 ;
490 [label="entropy = 0.65\nsamples = 6\nvalue = [5, 1]\nclass = No"] ;
489 -> 490 ;
491 [label="age <= 36.5\nentropy = 0.544\nsamples = 8\nvalue = [7, 1]\nclass = No"] ;
489 -> 491 ;
492 [label="entropy = 0.0\nsamples = 1\nvalue = [1, 0]\nclass = No"] ;
491 -> 492 ;
493 [label="entropy = 0.592\nsamples = 7\nvalue = [6, 1]\nclass = No"] ;
491 -> 493 ;
494 [label="entropy = 0.863\nsamples = 7\nvalue = [5, 2]\nclass = No"] ;
488 -> 494 ;
495 [label="entropy = 0.0\nsamples = 10\nvalue = [10, 0]\nclass = No"] ;
483 -> 495 ;
496 [label="age <= 43.5\nentropy = 0.852\nsamples = 18\nvalue = [13, 5]\nclass = No"] ;
482 -> 496 ;
497 [label="race <= 0.5\nentropy = 0.985\nsamples = 7\nvalue = [3, 4]\nclass = Yes"] ;
496 -> 497 ;
498 [label="entropy = 0.0\nsamples = 1\nvalue = [0, 1]\nclass = Yes"] ;
497 -> 498 ;
499 [label="age <= 42.5\nentropy = 1.0\nsamples = 6\nvalue = [3, 3]\nclass = No"] ;
497 -> 499 ;
500 [label="entropy = 1.0\nsamples = 2\nvalue = [1, 1]\nclass = No"] ;
499 -> 500 ;
501 [label="entropy = 1.0\nsamples = 4\nvalue = [2, 2]\nclass = No"] ;
499 -> 501 ;
502 [label="age <= 45.5\nentropy = 0.439\nsamples = 11\nvalue = [10, 1]\nclass = No"] ;
496 -> 502 ;
503 [label="entropy = 0.0\nsamples = 7\nvalue = [7, 0]\nclass = No"] ;
502 -> 503 ;
504 [label="entropy = 0.811\nsamples = 4\nvalue = [3, 1]\nclass = No"] ;
502 -> 504 ;
505 [label="entropy = 0.0\nsamples = 6\nvalue = [6, 0]\nclass = No"] ;
481 -> 505 ;
506 [label="age <= 32.5\nentropy = 0.89\nsamples = 13\nvalue = [9, 4]\nclass = No"] ;
454 -> 506 ;
507 [label="entropy = 0.0\nsamples = 6\nvalue = [6, 0]\nclass = No"] ;
506 -> 507 ;
508 [label="threat_level <= 0.5\nentropy = 0.985\nsamples = 7\nvalue = [3, 4]\nclass = Yes"] ;
506 -> 508 ;
509 [label="entropy = 0.0\nsamples = 3\nvalue = [0, 3]\nclass = Yes"] ;
508 -> 509 ;
510 [label="race <= 0.5\nentropy = 0.811\nsamples = 4\nvalue = [3, 1]\nclass = No"] ;
508 -> 510 ;
511 [label="entropy = 0.0\nsamples = 1\nvalue = [0, 1]\nclass = Yes"] ;
510 -> 511 ;
512 [label="entropy = 0.0\nsamples = 3\nvalue = [3, 0]\nclass = No"] ;
510 -> 512 ;
513 [label="entropy = 0.0\nsamples = 9\nvalue = [9, 0]\nclass = No"] ;
451 -> 513 ;
514 [label="armed <= 31.0\nentropy = 0.715\nsamples = 188\nvalue = [151, 37]\nclass = No"] ;
412 -> 514 ;
515 [label="manner_of_death <= 0.5\nentropy = 0.707\nsamples = 187\nvalue = [151, 36]\nclass = No"] ;
514 -> 515 ;
516 [label="age <= 24.5\nentropy = 0.695\nsamples = 182\nvalue = [148, 34]\nclass = No"] ;
515 -> 516 ;
517 [label="armed <= 22.0\nentropy = 0.831\nsamples = 38\nvalue = [28, 10]\nclass = No"] ;
516 -> 517 ;
518 [label="entropy = 0.0\nsamples = 1\nvalue = [0, 1]\nclass = Yes"] ;
517 -> 518 ;
519 [label="gender <= 0.5\nentropy = 0.8\nsamples = 37\nvalue = [28, 9]\nclass = No"] ;
517 -> 519 ;
520 [label="entropy = 0.0\nsamples = 1\nvalue = [0, 1]\nclass = Yes"] ;
519 -> 520 ;
521 [label="threat_level <= 1.5\nentropy = 0.764\nsamples = 36\nvalue = [28, 8]\nclass = No"] ;
519 -> 521 ;
522 [label="body_camera <= 0.5\nentropy = 0.722\nsamples = 35\nvalue = [28, 7]\nclass = No"] ;
521 -> 522 ;
523 [label="race <= 2.5\nentropy = 0.758\nsamples = 32\nvalue = [25, 7]\nclass = No"] ;
522 -> 523 ;
524 [label="age <= 23.5\nentropy = 0.784\nsamples = 30\nvalue = [23, 7]\nclass = No"] ;
523 -> 524 ;
525 [label="age <= 17.5\nentropy = 0.722\nsamples = 25\nvalue = [20, 5]\nclass = No"] ;
524 -> 525 ;
526 [label="threat_level <= 0.5\nentropy = 1.0\nsamples = 2\nvalue = [1, 1]\nclass = No"] ;
525 -> 526 ;
527 [label="entropy = 0.0\nsamples = 1\nvalue = [0, 1]\nclass = Yes"] ;
526 -> 527 ;
528 [label="entropy = 0.0\nsamples = 1\nvalue = [1, 0]\nclass = No"] ;
526 -> 528 ;
529 [label="flee <= 2.5\nentropy = 0.667\nsamples = 23\nvalue = [19, 4]\nclass = No"] ;
525 -> 529 ;
530 [label="age <= 22.5\nentropy = 0.61\nsamples = 20\nvalue = [17, 3]\nclass = No"] ;
529 -> 530 ;
531 [label="age <= 21.5\nentropy = 0.672\nsamples = 17\nvalue = [14, 3]\nclass = No"] ;
530 -> 531 ;
532 [label="threat_level <= 0.5\nentropy = 0.503\nsamples = 9\nvalue = [8, 1]\nclass = No"] ;
531 -> 532 ;
533 [label="entropy = 0.0\nsamples = 6\nvalue = [6, 0]\nclass = No"] ;
532 -> 533 ;
534 [label="age <= 19.5\nentropy = 0.918\nsamples = 3\nvalue = [2, 1]\nclass = No"] ;
532 -> 534 ;
535 [label="entropy = 1.0\nsamples = 2\nvalue = [1, 1]\nclass = No"] ;
534 -> 535 ;
536 [label="entropy = 0.0\nsamples = 1\nvalue = [1, 0]\nclass = No"] ;
534 -> 536 ;
537 [label="threat_level <= 0.5\nentropy = 0.811\nsamples = 8\nvalue = [6, 2]\nclass = No"] ;
531 -> 537 ;
538 [label="entropy = 0.863\nsamples = 7\nvalue = [5, 2]\nclass = No"] ;
537 -> 538 ;
539 [label="entropy = 0.0\nsamples = 1\nvalue = [1, 0]\nclass = No"] ;
537 -> 539 ;
540 [label="entropy = 0.0\nsamples = 3\nvalue = [3, 0]\nclass = No"] ;
530 -> 540 ;
541 [label="threat_level <= 0.5\nentropy = 0.918\nsamples = 3\nvalue = [2, 1]\nclass = No"] ;
529 -> 541 ;
542 [label="entropy = 1.0\nsamples = 2\nvalue = [1, 1]\nclass = No"] ;
541 -> 542 ;
543 [label="entropy = 0.0\nsamples = 1\nvalue = [1, 0]\nclass = No"] ;
541 -> 543 ;
544 [label="entropy = 0.971\nsamples = 5\nvalue = [3, 2]\nclass = No"] ;
524 -> 544 ;
545 [label="entropy = 0.0\nsamples = 2\nvalue = [2, 0]\nclass = No"] ;
523 -> 545 ;
546 [label="entropy = 0.0\nsamples = 3\nvalue = [3, 0]\nclass = No"] ;
522 -> 546 ;
547 [label="entropy = 0.0\nsamples = 1\nvalue = [0, 1]\nclass = Yes"] ;
521 -> 547 ;
548 [label="threat_level <= 0.5\nentropy = 0.65\nsamples = 144\nvalue = [120, 24]\nclass = No"] ;
516 -> 548 ;
549 [label="age <= 40.5\nentropy = 0.696\nsamples = 112\nvalue = [91, 21]\nclass = No"] ;
548 -> 549 ;
550 [label="age <= 30.5\nentropy = 0.751\nsamples = 93\nvalue = [73, 20]\nclass = No"] ;
549 -> 550 ;
551 [label="armed <= 25.5\nentropy = 0.625\nsamples = 32\nvalue = [27, 5]\nclass = No"] ;
550 -> 551 ;
552 [label="entropy = 0.0\nsamples = 2\nvalue = [2, 0]\nclass = No"] ;
551 -> 552 ;
553 [label="age <= 29.5\nentropy = 0.65\nsamples = 30\nvalue = [25, 5]\nclass = No"] ;
551 -> 553 ;
554 [label="body_camera <= 0.5\nentropy = 0.677\nsamples = 28\nvalue = [23, 5]\nclass = No"] ;
553 -> 554 ;
555 [label="age <= 26.5\nentropy = 0.634\nsamples = 25\nvalue = [21, 4]\nclass = No"] ;
554 -> 555 ;
556 [label="age <= 25.5\nentropy = 0.469\nsamples = 10\nvalue = [9, 1]\nclass = No"] ;
555 -> 556 ;
557 [label="entropy = 0.722\nsamples = 5\nvalue = [4, 1]\nclass = No"] ;
556 -> 557 ;
558 [label="entropy = 0.0\nsamples = 5\nvalue = [5, 0]\nclass = No"] ;
556 -> 558 ;
559 [label="flee <= 2.5\nentropy = 0.722\nsamples = 15\nvalue = [12, 3]\nclass = No"] ;
555 -> 559 ;
560 [label="race <= 2.5\nentropy = 0.75\nsamples = 14\nvalue = [11, 3]\nclass = No"] ;
559 -> 560 ;
561 [label="age <= 28.5\nentropy = 0.779\nsamples = 13\nvalue = [10, 3]\nclass = No"] ;
560 -> 561 ;
562 [label="age <= 27.5\nentropy = 0.811\nsamples = 8\nvalue = [6, 2]\nclass = No"] ;
561 -> 562 ;
563 [label="entropy = 0.811\nsamples = 4\nvalue = [3, 1]\nclass = No"] ;
562 -> 563 ;
564 [label="entropy = 0.811\nsamples = 4\nvalue = [3, 1]\nclass = No"] ;
562 -> 564 ;
565 [label="entropy = 0.722\nsamples = 5\nvalue = [4, 1]\nclass = No"] ;
561 -> 565 ;
566 [label="entropy = 0.0\nsamples = 1\nvalue = [1, 0]\nclass = No"] ;
560 -> 566 ;
567 [label="entropy = 0.0\nsamples = 1\nvalue = [1, 0]\nclass = No"] ;
559 -> 567 ;
568 [label="entropy = 0.918\nsamples = 3\nvalue = [2, 1]\nclass = No"] ;
554 -> 568 ;
569 [label="entropy = 0.0\nsamples = 2\nvalue = [2, 0]\nclass = No"] ;
553 -> 569 ;
570 [label="gender <= 0.5\nentropy = 0.805\nsamples = 61\nvalue = [46, 15]\nclass = No"] ;
550 -> 570 ;
571 [label="entropy = 0.0\nsamples = 2\nvalue = [2, 0]\nclass = No"] ;
570 -> 571 ;
572 [label="race <= 2.5\nentropy = 0.818\nsamples = 59\nvalue = [44, 15]\nclass = No"] ;
570 -> 572 ;
573 [label="body_camera <= 0.5\nentropy = 0.796\nsamples = 54\nvalue = [41, 13]\nclass = No"] ;
572 -> 573 ;
574 [label="age <= 33.5\nentropy = 0.851\nsamples = 47\nvalue = [34, 13]\nclass = No"] ;
573 -> 574 ;
575 [label="age <= 32.5\nentropy = 0.937\nsamples = 17\nvalue = [11, 6]\nclass = No"] ;
574 -> 575 ;
576 [label="age <= 31.5\nentropy = 0.764\nsamples = 9\nvalue = [7, 2]\nclass = No"] ;
575 -> 576 ;
577 [label="entropy = 0.811\nsamples = 4\nvalue = [3, 1]\nclass = No"] ;
576 -> 577 ;
578 [label="entropy = 0.722\nsamples = 5\nvalue = [4, 1]\nclass = No"] ;
576 -> 578 ;
579 [label="flee <= 2.5\nentropy = 1.0\nsamples = 8\nvalue = [4, 4]\nclass = No"] ;
575 -> 579 ;
580 [label="entropy = 0.985\nsamples = 7\nvalue = [3, 4]\nclass = Yes"] ;
579 -> 580 ;
581 [label="entropy = 0.0\nsamples = 1\nvalue = [1, 0]\nclass = No"] ;
579 -> 581 ;
582 [label="flee <= 2.5\nentropy = 0.784\nsamples = 30\nvalue = [23, 7]\nclass = No"] ;
574 -> 582 ;
583 [label="age <= 35.5\nentropy = 0.75\nsamples = 28\nvalue = [22, 6]\nclass = No"] ;
582 -> 583 ;
584 [label="age <= 34.5\nentropy = 0.544\nsamples = 8\nvalue = [7, 1]\nclass = No"] ;
583 -> 584 ;
585 [label="entropy = 0.811\nsamples = 4\nvalue = [3, 1]\nclass = No"] ;
584 -> 585 ;
586 [label="entropy = 0.0\nsamples = 4\nvalue = [4, 0]\nclass = No"] ;
584 -> 586 ;
587 [label="age <= 36.5\nentropy = 0.811\nsamples = 20\nvalue = [15, 5]\nclass = No"] ;
583 -> 587 ;
588 [label="entropy = 0.971\nsamples = 5\nvalue = [3, 2]\nclass = No"] ;
587 -> 588 ;
589 [label="age <= 37.5\nentropy = 0.722\nsamples = 15\nvalue = [12, 3]\nclass = No"] ;
587 -> 589 ;
590 [label="entropy = 0.0\nsamples = 2\nvalue = [2, 0]\nclass = No"] ;
589 -> 590 ;
591 [label="age <= 38.5\nentropy = 0.779\nsamples = 13\nvalue = [10, 3]\nclass = No"] ;
589 -> 591 ;
592 [label="entropy = 0.918\nsamples = 3\nvalue = [2, 1]\nclass = No"] ;
591 -> 592 ;
593 [label="age <= 39.5\nentropy = 0.722\nsamples = 10\nvalue = [8, 2]\nclass = No"] ;
591 -> 593 ;
594 [label="entropy = 0.722\nsamples = 5\nvalue = [4, 1]\nclass = No"] ;
593 -> 594 ;
595 [label="entropy = 0.722\nsamples = 5\nvalue = [4, 1]\nclass = No"] ;
593 -> 595 ;
596 [label="age <= 34.5\nentropy = 1.0\nsamples = 2\nvalue = [1, 1]\nclass = No"] ;
582 -> 596 ;
597 [label="entropy = 0.0\nsamples = 1\nvalue = [1, 0]\nclass = No"] ;
596 -> 597 ;
598 [label="entropy = 0.0\nsamples = 1\nvalue = [0, 1]\nclass = Yes"] ;
596 -> 598 ;
599 [label="entropy = 0.0\nsamples = 7\nvalue = [7, 0]\nclass = No"] ;
573 -> 599 ;
600 [label="body_camera <= 0.5\nentropy = 0.971\nsamples = 5\nvalue = [3, 2]\nclass = No"] ;
572 -> 600 ;
601 [label="entropy = 0.0\nsamples = 3\nvalue = [3, 0]\nclass = No"] ;
600 -> 601 ;
602 [label="entropy = 0.0\nsamples = 2\nvalue = [0, 2]\nclass = Yes"] ;
600 -> 602 ;
603 [label="flee <= 2.5\nentropy = 0.297\nsamples = 19\nvalue = [18, 1]\nclass = No"] ;
549 -> 603 ;
604 [label="entropy = 0.0\nsamples = 18\nvalue = [18, 0]\nclass = No"] ;
603 -> 604 ;
605 [label="entropy = 0.0\nsamples = 1\nvalue = [0, 1]\nclass = Yes"] ;
603 -> 605 ;
606 [label="age <= 41.5\nentropy = 0.449\nsamples = 32\nvalue = [29, 3]\nclass = No"] ;
548 -> 606 ;
607 [label="entropy = 0.0\nsamples = 25\nvalue = [25, 0]\nclass = No"] ;
606 -> 607 ;
608 [label="race <= 2.5\nentropy = 0.985\nsamples = 7\nvalue = [4, 3]\nclass = No"] ;
606 -> 608 ;
609 [label="age <= 44.5\nentropy = 0.971\nsamples = 5\nvalue = [2, 3]\nclass = Yes"] ;
608 -> 609 ;
610 [label="flee <= 2.5\nentropy = 1.0\nsamples = 4\nvalue = [2, 2]\nclass = No"] ;
609 -> 610 ;
611 [label="age <= 42.5\nentropy = 0.918\nsamples = 3\nvalue = [2, 1]\nclass = No"] ;
610 -> 611 ;
612 [label="entropy = 0.0\nsamples = 1\nvalue = [1, 0]\nclass = No"] ;
611 -> 612 ;
613 [label="age <= 43.5\nentropy = 1.0\nsamples = 2\nvalue = [1, 1]\nclass = No"] ;
611 -> 613 ;
614 [label="entropy = 0.0\nsamples = 1\nvalue = [0, 1]\nclass = Yes"] ;
613 -> 614 ;
615 [label="entropy = 0.0\nsamples = 1\nvalue = [1, 0]\nclass = No"] ;
613 -> 615 ;
616 [label="entropy = 0.0\nsamples = 1\nvalue = [0, 1]\nclass = Yes"] ;
610 -> 616 ;
617 [label="entropy = 0.0\nsamples = 1\nvalue = [0, 1]\nclass = Yes"] ;
609 -> 617 ;
618 [label="entropy = 0.0\nsamples = 2\nvalue = [2, 0]\nclass = No"] ;
608 -> 618 ;
619 [label="age <= 37.0\nentropy = 0.971\nsamples = 5\nvalue = [3, 2]\nclass = No"] ;
515 -> 619 ;
620 [label="entropy = 0.0\nsamples = 3\nvalue = [3, 0]\nclass = No"] ;
619 -> 620 ;
621 [label="entropy = 0.0\nsamples = 2\nvalue = [0, 2]\nclass = Yes"] ;
619 -> 621 ;
622 [label="entropy = 0.0\nsamples = 1\nvalue = [0, 1]\nclass = Yes"] ;
514 -> 622 ;
623 [label="age <= 49.5\nentropy = 0.201\nsamples = 32\nvalue = [31, 1]\nclass = No"] ;
411 -> 623 ;
624 [label="entropy = 0.0\nsamples = 15\nvalue = [15, 0]\nclass = No"] ;
623 -> 624 ;
625 [label="race <= 1.5\nentropy = 0.323\nsamples = 17\nvalue = [16, 1]\nclass = No"] ;
623 -> 625 ;
626 [label="age <= 50.5\nentropy = 0.469\nsamples = 10\nvalue = [9, 1]\nclass = No"] ;
625 -> 626 ;
627 [label="gender <= 0.5\nentropy = 0.65\nsamples = 6\nvalue = [5, 1]\nclass = No"] ;
626 -> 627 ;
628 [label="entropy = 0.0\nsamples = 1\nvalue = [1, 0]\nclass = No"] ;
627 -> 628 ;
629 [label="threat_level <= 0.5\nentropy = 0.722\nsamples = 5\nvalue = [4, 1]\nclass = No"] ;
627 -> 629 ;
630 [label="entropy = 0.811\nsamples = 4\nvalue = [3, 1]\nclass = No"] ;
629 -> 630 ;
631 [label="entropy = 0.0\nsamples = 1\nvalue = [1, 0]\nclass = No"] ;
629 -> 631 ;
632 [label="entropy = 0.0\nsamples = 4\nvalue = [4, 0]\nclass = No"] ;
626 -> 632 ;
633 [label="entropy = 0.0\nsamples = 7\nvalue = [7, 0]\nclass = No"] ;
625 -> 633 ;
634 [label="threat_level <= 0.5\nentropy = 0.961\nsamples = 13\nvalue = [8, 5]\nclass = No"] ;
410 -> 634 ;
635 [label="age <= 53.5\nentropy = 0.918\nsamples = 12\nvalue = [8, 4]\nclass = No"] ;
634 -> 635 ;
636 [label="race <= 2.0\nentropy = 1.0\nsamples = 6\nvalue = [3, 3]\nclass = No"] ;
635 -> 636 ;
637 [label="race <= 0.5\nentropy = 0.971\nsamples = 5\nvalue = [2, 3]\nclass = Yes"] ;
636 -> 637 ;
638 [label="entropy = 1.0\nsamples = 2\nvalue = [1, 1]\nclass = No"] ;
637 -> 638 ;
639 [label="entropy = 0.918\nsamples = 3\nvalue = [1, 2]\nclass = Yes"] ;
637 -> 639 ;
640 [label="entropy = 0.0\nsamples = 1\nvalue = [1, 0]\nclass = No"] ;
636 -> 640 ;
641 [label="race <= 1.5\nentropy = 0.65\nsamples = 6\nvalue = [5, 1]\nclass = No"] ;
635 -> 641 ;
642 [label="entropy = 0.0\nsamples = 4\nvalue = [4, 0]\nclass = No"] ;
641 -> 642 ;
643 [label="entropy = 1.0\nsamples = 2\nvalue = [1, 1]\nclass = No"] ;
641 -> 643 ;
644 [label="entropy = 0.0\nsamples = 1\nvalue = [0, 1]\nclass = Yes"] ;
634 -> 644 ;
645 [label="entropy = 0.0\nsamples = 13\nvalue = [13, 0]\nclass = No"] ;
409 -> 645 ;
646 [label="race <= 1.5\nentropy = 0.991\nsamples = 9\nvalue = [5, 4]\nclass = No"] ;
408 -> 646 ;
647 [label="age <= 75.5\nentropy = 0.863\nsamples = 7\nvalue = [5, 2]\nclass = No"] ;
646 -> 647 ;
648 [label="age <= 67.5\nentropy = 0.65\nsamples = 6\nvalue = [5, 1]\nclass = No"] ;
647 -> 648 ;
649 [label="body_camera <= 0.5\nentropy = 0.918\nsamples = 3\nvalue = [2, 1]\nclass = No"] ;
648 -> 649 ;
650 [label="entropy = 1.0\nsamples = 2\nvalue = [1, 1]\nclass = No"] ;
649 -> 650 ;
651 [label="entropy = 0.0\nsamples = 1\nvalue = [1, 0]\nclass = No"] ;
649 -> 651 ;
652 [label="entropy = 0.0\nsamples = 3\nvalue = [3, 0]\nclass = No"] ;
648 -> 652 ;
653 [label="entropy = 0.0\nsamples = 1\nvalue = [0, 1]\nclass = Yes"] ;
647 -> 653 ;
654 [label="entropy = 0.0\nsamples = 2\nvalue = [0, 2]\nclass = Yes"] ;
646 -> 654 ;
655 [label="flee <= 2.5\nentropy = 0.89\nsamples = 404\nvalue = [280, 124]\nclass = No"] ;
391 -> 655 ;
656 [label="threat_level <= 1.5\nentropy = 0.907\nsamples = 385\nvalue = [261, 124]\nclass = No"] ;
655 -> 656 ;
657 [label="threat_level <= 0.5\nentropy = 0.923\nsamples = 361\nvalue = [239, 122]\nclass = No"] ;
656 -> 657 ;
658 [label="body_camera <= 0.5\nentropy = 0.831\nsamples = 156\nvalue = [115, 41]\nclass = No"] ;
657 -> 658 ;
659 [label="race <= 1.5\nentropy = 0.767\nsamples = 134\nvalue = [104, 30]\nclass = No"] ;
658 -> 659 ;
660 [label="age <= 24.5\nentropy = 0.853\nsamples = 79\nvalue = [57, 22]\nclass = No"] ;
659 -> 660 ;
661 [label="entropy = 0.0\nsamples = 9\nvalue = [9, 0]\nclass = No"] ;
660 -> 661 ;
662 [label="armed <= 77.5\nentropy = 0.898\nsamples = 70\nvalue = [48, 22]\nclass = No"] ;
660 -> 662 ;
663 [label="gender <= 0.5\nentropy = 0.918\nsamples = 66\nvalue = [44, 22]\nclass = No"] ;
662 -> 663 ;
664 [label="entropy = 0.0\nsamples = 3\nvalue = [3, 0]\nclass = No"] ;
663 -> 664 ;
665 [label="armed <= 38.5\nentropy = 0.933\nsamples = 63\nvalue = [41, 22]\nclass = No"] ;
663 -> 665 ;
666 [label="entropy = 0.0\nsamples = 1\nvalue = [0, 1]\nclass = Yes"] ;
665 -> 666 ;
667 [label="armed <= 76.0\nentropy = 0.924\nsamples = 62\nvalue = [41, 21]\nclass = No"] ;
665 -> 667 ;
668 [label="age <= 62.0\nentropy = 0.913\nsamples = 61\nvalue = [41, 20]\nclass = No"] ;
667 -> 668 ;
669 [label="age <= 33.5\nentropy = 0.894\nsamples = 58\nvalue = [40, 18]\nclass = No"] ;
668 -> 669 ;
670 [label="age <= 29.5\nentropy = 0.966\nsamples = 23\nvalue = [14, 9]\nclass = No"] ;
669 -> 670 ;
671 [label="armed <= 50.0\nentropy = 0.874\nsamples = 17\nvalue = [12, 5]\nclass = No"] ;
670 -> 671 ;
672 [label="age <= 25.5\nentropy = 0.98\nsamples = 12\nvalue = [7, 5]\nclass = No"] ;
671 -> 672 ;
673 [label="entropy = 1.0\nsamples = 6\nvalue = [3, 3]\nclass = No"] ;
672 -> 673 ;
674 [label="age <= 27.5\nentropy = 0.918\nsamples = 6\nvalue = [4, 2]\nclass = No"] ;
672 -> 674 ;
675 [label="entropy = 0.0\nsamples = 2\nvalue = [2, 0]\nclass = No"] ;
674 -> 675 ;
676 [label="age <= 28.5\nentropy = 1.0\nsamples = 4\nvalue = [2, 2]\nclass = No"] ;
674 -> 676 ;
677 [label="entropy = 1.0\nsamples = 2\nvalue = [1, 1]\nclass = No"] ;
676 -> 677 ;
678 [label="entropy = 1.0\nsamples = 2\nvalue = [1, 1]\nclass = No"] ;
676 -> 678 ;
679 [label="entropy = 0.0\nsamples = 5\nvalue = [5, 0]\nclass = No"] ;
671 -> 679 ;
680 [label="race <= 0.5\nentropy = 0.918\nsamples = 6\nvalue = [2, 4]\nclass = Yes"] ;
670 -> 680 ;
681 [label="entropy = 0.0\nsamples = 1\nvalue = [1, 0]\nclass = No"] ;
680 -> 681 ;
682 [label="age <= 31.5\nentropy = 0.722\nsamples = 5\nvalue = [1, 4]\nclass = Yes"] ;
680 -> 682 ;
683 [label="entropy = 0.0\nsamples = 2\nvalue = [0, 2]\nclass = Yes"] ;
682 -> 683 ;
684 [label="armed <= 58.0\nentropy = 0.918\nsamples = 3\nvalue = [1, 2]\nclass = Yes"] ;
682 -> 684 ;
685 [label="entropy = 0.0\nsamples = 1\nvalue = [0, 1]\nclass = Yes"] ;
684 -> 685 ;
686 [label="age <= 32.5\nentropy = 1.0\nsamples = 2\nvalue = [1, 1]\nclass = No"] ;
684 -> 686 ;
687 [label="entropy = 0.0\nsamples = 1\nvalue = [1, 0]\nclass = No"] ;
686 -> 687 ;
688 [label="entropy = 0.0\nsamples = 1\nvalue = [0, 1]\nclass = Yes"] ;
686 -> 688 ;
689 [label="armed <= 44.5\nentropy = 0.822\nsamples = 35\nvalue = [26, 9]\nclass = No"] ;
669 -> 689 ;
690 [label="race <= 0.5\nentropy = 0.667\nsamples = 23\nvalue = [19, 4]\nclass = No"] ;
689 -> 690 ;
691 [label="age <= 41.5\nentropy = 0.971\nsamples = 5\nvalue = [3, 2]\nclass = No"] ;
690 -> 691 ;
692 [label="entropy = 0.0\nsamples = 1\nvalue = [1, 0]\nclass = No"] ;
691 -> 692 ;
693 [label="age <= 49.5\nentropy = 1.0\nsamples = 4\nvalue = [2, 2]\nclass = No"] ;
691 -> 693 ;
694 [label="entropy = 0.0\nsamples = 1\nvalue = [0, 1]\nclass = Yes"] ;
693 -> 694 ;
695 [label="age <= 54.5\nentropy = 0.918\nsamples = 3\nvalue = [2, 1]\nclass = No"] ;
693 -> 695 ;
696 [label="entropy = 0.0\nsamples = 1\nvalue = [1, 0]\nclass = No"] ;
695 -> 696 ;
697 [label="age <= 58.0\nentropy = 1.0\nsamples = 2\nvalue = [1, 1]\nclass = No"] ;
695 -> 697 ;
698 [label="entropy = 0.0\nsamples = 1\nvalue = [0, 1]\nclass = Yes"] ;
697 -> 698 ;
699 [label="entropy = 0.0\nsamples = 1\nvalue = [1, 0]\nclass = No"] ;
697 -> 699 ;
700 [label="age <= 38.0\nentropy = 0.503\nsamples = 18\nvalue = [16, 2]\nclass = No"] ;
690 -> 700 ;
701 [label="manner_of_death <= 0.5\nentropy = 0.811\nsamples = 8\nvalue = [6, 2]\nclass = No"] ;
700 -> 701 ;
702 [label="age <= 35.5\nentropy = 0.592\nsamples = 7\nvalue = [6, 1]\nclass = No"] ;
701 -> 702 ;
703 [label="entropy = 0.0\nsamples = 3\nvalue = [3, 0]\nclass = No"] ;
702 -> 703 ;
704 [label="age <= 36.5\nentropy = 0.811\nsamples = 4\nvalue = [3, 1]\nclass = No"] ;
702 -> 704 ;
705 [label="entropy = 0.918\nsamples = 3\nvalue = [2, 1]\nclass = No"] ;
704 -> 705 ;
706 [label="entropy = 0.0\nsamples = 1\nvalue = [1, 0]\nclass = No"] ;
704 -> 706 ;
707 [label="entropy = 0.0\nsamples = 1\nvalue = [0, 1]\nclass = Yes"] ;
701 -> 707 ;
708 [label="entropy = 0.0\nsamples = 10\nvalue = [10, 0]\nclass = No"] ;
700 -> 708 ;
709 [label="armed <= 66.5\nentropy = 0.98\nsamples = 12\nvalue = [7, 5]\nclass = No"] ;
689 -> 709 ;
710 [label="entropy = 0.0\nsamples = 3\nvalue = [0, 3]\nclass = Yes"] ;
709 -> 710 ;
711 [label="age <= 38.0\nentropy = 0.764\nsamples = 9\nvalue = [7, 2]\nclass = No"] ;
709 -> 711 ;
712 [label="entropy = 0.0\nsamples = 4\nvalue = [4, 0]\nclass = No"] ;
711 -> 712 ;
713 [label="armed <= 73.5\nentropy = 0.971\nsamples = 5\nvalue = [3, 2]\nclass = No"] ;
711 -> 713 ;
714 [label="entropy = 0.0\nsamples = 1\nvalue = [0, 1]\nclass = Yes"] ;
713 -> 714 ;
715 [label="age <= 43.0\nentropy = 0.811\nsamples = 4\nvalue = [3, 1]\nclass = No"] ;
713 -> 715 ;
716 [label="entropy = 0.918\nsamples = 3\nvalue = [2, 1]\nclass = No"] ;
715 -> 716 ;
717 [label="entropy = 0.0\nsamples = 1\nvalue = [1, 0]\nclass = No"] ;
715 -> 717 ;
718 [label="age <= 64.0\nentropy = 0.918\nsamples = 3\nvalue = [1, 2]\nclass = Yes"] ;
668 -> 718 ;
719 [label="entropy = 0.0\nsamples = 2\nvalue = [0, 2]\nclass = Yes"] ;
718 -> 719 ;
720 [label="entropy = 0.0\nsamples = 1\nvalue = [1, 0]\nclass = No"] ;
718 -> 720 ;
721 [label="entropy = 0.0\nsamples = 1\nvalue = [0, 1]\nclass = Yes"] ;
667 -> 721 ;
722 [label="entropy = 0.0\nsamples = 4\nvalue = [4, 0]\nclass = No"] ;
662 -> 722 ;
723 [label="age <= 21.5\nentropy = 0.598\nsamples = 55\nvalue = [47, 8]\nclass = No"] ;
659 -> 723 ;
724 [label="age <= 20.5\nentropy = 0.811\nsamples = 4\nvalue = [1, 3]\nclass = Yes"] ;
723 -> 724 ;
725 [label="entropy = 0.0\nsamples = 2\nvalue = [0, 2]\nclass = Yes"] ;
724 -> 725 ;
726 [label="armed <= 58.0\nentropy = 1.0\nsamples = 2\nvalue = [1, 1]\nclass = No"] ;
724 -> 726 ;
727 [label="entropy = 0.0\nsamples = 1\nvalue = [1, 0]\nclass = No"] ;
726 -> 727 ;
728 [label="entropy = 0.0\nsamples = 1\nvalue = [0, 1]\nclass = Yes"] ;
726 -> 728 ;
729 [label="age <= 49.5\nentropy = 0.463\nsamples = 51\nvalue = [46, 5]\nclass = No"] ;
723 -> 729 ;
730 [label="armed <= 75.5\nentropy = 0.365\nsamples = 43\nvalue = [40, 3]\nclass = No"] ;
729 -> 730 ;
731 [label="age <= 35.5\nentropy = 0.281\nsamples = 41\nvalue = [39, 2]\nclass = No"] ;
730 -> 731 ;
732 [label="manner_of_death <= 0.5\nentropy = 0.391\nsamples = 26\nvalue = [24, 2]\nclass = No"] ;
731 -> 732 ;
733 [label="armed <= 42.0\nentropy = 0.258\nsamples = 23\nvalue = [22, 1]\nclass = No"] ;
732 -> 733 ;
734 [label="entropy = 0.0\nsamples = 16\nvalue = [16, 0]\nclass = No"] ;
733 -> 734 ;
735 [label="armed <= 58.5\nentropy = 0.592\nsamples = 7\nvalue = [6, 1]\nclass = No"] ;
733 -> 735 ;
736 [label="entropy = 0.0\nsamples = 1\nvalue = [0, 1]\nclass = Yes"] ;
735 -> 736 ;
737 [label="entropy = 0.0\nsamples = 6\nvalue = [6, 0]\nclass = No"] ;
735 -> 737 ;
738 [label="age <= 31.0\nentropy = 0.918\nsamples = 3\nvalue = [2, 1]\nclass = No"] ;
732 -> 738 ;
739 [label="entropy = 0.0\nsamples = 2\nvalue = [2, 0]\nclass = No"] ;
738 -> 739 ;
740 [label="entropy = 0.0\nsamples = 1\nvalue = [0, 1]\nclass = Yes"] ;
738 -> 740 ;
741 [label="entropy = 0.0\nsamples = 15\nvalue = [15, 0]\nclass = No"] ;
731 -> 741 ;
742 [label="age <= 24.0\nentropy = 1.0\nsamples = 2\nvalue = [1, 1]\nclass = No"] ;
730 -> 742 ;
743 [label="entropy = 0.0\nsamples = 1\nvalue = [1, 0]\nclass = No"] ;
742 -> 743 ;
744 [label="entropy = 0.0\nsamples = 1\nvalue = [0, 1]\nclass = Yes"] ;
742 -> 744 ;
745 [label="age <= 50.5\nentropy = 0.811\nsamples = 8\nvalue = [6, 2]\nclass = No"] ;
729 -> 745 ;
746 [label="entropy = 0.0\nsamples = 1\nvalue = [0, 1]\nclass = Yes"] ;
745 -> 746 ;
747 [label="armed <= 61.0\nentropy = 0.592\nsamples = 7\nvalue = [6, 1]\nclass = No"] ;
745 -> 747 ;
748 [label="entropy = 0.0\nsamples = 3\nvalue = [3, 0]\nclass = No"] ;
747 -> 748 ;
749 [label="armed <= 74.5\nentropy = 0.811\nsamples = 4\nvalue = [3, 1]\nclass = No"] ;
747 -> 749 ;
750 [label="entropy = 0.0\nsamples = 1\nvalue = [0, 1]\nclass = Yes"] ;
749 -> 750 ;
751 [label="entropy = 0.0\nsamples = 3\nvalue = [3, 0]\nclass = No"] ;
749 -> 751 ;
752 [label="armed <= 74.5\nentropy = 1.0\nsamples = 22\nvalue = [11, 11]\nclass = No"] ;
658 -> 752 ;
753 [label="age <= 60.5\nentropy = 0.954\nsamples = 16\nvalue = [10, 6]\nclass = No"] ;
752 -> 753 ;
754 [label="age <= 37.5\nentropy = 0.863\nsamples = 14\nvalue = [10, 4]\nclass = No"] ;
753 -> 754 ;
755 [label="manner_of_death <= 0.5\nentropy = 0.991\nsamples = 9\nvalue = [5, 4]\nclass = No"] ;
754 -> 755 ;
756 [label="age <= 31.5\nentropy = 0.954\nsamples = 8\nvalue = [5, 3]\nclass = No"] ;
755 -> 756 ;
757 [label="age <= 22.0\nentropy = 1.0\nsamples = 6\nvalue = [3, 3]\nclass = No"] ;
756 -> 757 ;
758 [label="age <= 17.0\nentropy = 0.811\nsamples = 4\nvalue = [3, 1]\nclass = No"] ;
757 -> 758 ;
759 [label="entropy = 0.0\nsamples = 1\nvalue = [0, 1]\nclass = Yes"] ;
758 -> 759 ;
760 [label="entropy = 0.0\nsamples = 3\nvalue = [3, 0]\nclass = No"] ;
758 -> 760 ;
761 [label="entropy = 0.0\nsamples = 2\nvalue = [0, 2]\nclass = Yes"] ;
757 -> 761 ;
762 [label="entropy = 0.0\nsamples = 2\nvalue = [2, 0]\nclass = No"] ;
756 -> 762 ;
763 [label="entropy = 0.0\nsamples = 1\nvalue = [0, 1]\nclass = Yes"] ;
755 -> 763 ;
764 [label="entropy = 0.0\nsamples = 5\nvalue = [5, 0]\nclass = No"] ;
754 -> 764 ;
765 [label="entropy = 0.0\nsamples = 2\nvalue = [0, 2]\nclass = Yes"] ;
753 -> 765 ;
766 [label="age <= 33.5\nentropy = 0.65\nsamples = 6\nvalue = [1, 5]\nclass = Yes"] ;
752 -> 766 ;
767 [label="entropy = 0.0\nsamples = 1\nvalue = [1, 0]\nclass = No"] ;
766 -> 767 ;
768 [label="entropy = 0.0\nsamples = 5\nvalue = [0, 5]\nclass = Yes"] ;
766 -> 768 ;
769 [label="age <= 54.5\nentropy = 0.968\nsamples = 205\nvalue = [124, 81]\nclass = No"] ;
657 -> 769 ;
770 [label="armed <= 75.5\nentropy = 0.984\nsamples = 186\nvalue = [107.0, 79.0]\nclass = No"] ;
769 -> 770 ;
771 [label="age <= 22.5\nentropy = 0.996\nsamples = 165\nvalue = [89, 76]\nclass = No"] ;
770 -> 771 ;
772 [label="race <= 0.5\nentropy = 0.894\nsamples = 29\nvalue = [20, 9]\nclass = No"] ;
771 -> 772 ;
773 [label="entropy = 0.0\nsamples = 3\nvalue = [0, 3]\nclass = Yes"] ;
772 -> 773 ;
774 [label="armed <= 74.5\nentropy = 0.779\nsamples = 26\nvalue = [20, 6]\nclass = No"] ;
772 -> 774 ;
775 [label="armed <= 73.5\nentropy = 0.881\nsamples = 20\nvalue = [14, 6]\nclass = No"] ;
774 -> 775 ;
776 [label="body_camera <= 0.5\nentropy = 0.722\nsamples = 15\nvalue = [12, 3]\nclass = No"] ;
775 -> 776 ;
777 [label="armed <= 44.0\nentropy = 0.811\nsamples = 12\nvalue = [9, 3]\nclass = No"] ;
776 -> 777 ;
778 [label="race <= 2.5\nentropy = 0.881\nsamples = 10\nvalue = [7, 3]\nclass = No"] ;
777 -> 778 ;
779 [label="age <= 18.0\nentropy = 0.954\nsamples = 8\nvalue = [5, 3]\nclass = No"] ;
778 -> 779 ;
780 [label="entropy = 0.0\nsamples = 1\nvalue = [0, 1]\nclass = Yes"] ;
779 -> 780 ;
781 [label="armed <= 38.5\nentropy = 0.863\nsamples = 7\nvalue = [5, 2]\nclass = No"] ;
779 -> 781 ;
782 [label="entropy = 0.0\nsamples = 1\nvalue = [1, 0]\nclass = No"] ;
781 -> 782 ;
783 [label="age <= 19.5\nentropy = 0.918\nsamples = 6\nvalue = [4, 2]\nclass = No"] ;
781 -> 783 ;
784 [label="entropy = 0.0\nsamples = 1\nvalue = [1, 0]\nclass = No"] ;
783 -> 784 ;
785 [label="age <= 20.5\nentropy = 0.971\nsamples = 5\nvalue = [3, 2]\nclass = No"] ;
783 -> 785 ;
786 [label="entropy = 0.0\nsamples = 1\nvalue = [0, 1]\nclass = Yes"] ;
785 -> 786 ;
787 [label="age <= 21.5\nentropy = 0.811\nsamples = 4\nvalue = [3, 1]\nclass = No"] ;
785 -> 787 ;
788 [label="entropy = 0.0\nsamples = 1\nvalue = [1, 0]\nclass = No"] ;
787 -> 788 ;
789 [label="entropy = 0.918\nsamples = 3\nvalue = [2, 1]\nclass = No"] ;
787 -> 789 ;
790 [label="entropy = 0.0\nsamples = 2\nvalue = [2, 0]\nclass = No"] ;
778 -> 790 ;
791 [label="entropy = 0.0\nsamples = 2\nvalue = [2, 0]\nclass = No"] ;
777 -> 791 ;
792 [label="entropy = 0.0\nsamples = 3\nvalue = [3, 0]\nclass = No"] ;
776 -> 792 ;
793 [label="age <= 19.5\nentropy = 0.971\nsamples = 5\nvalue = [2, 3]\nclass = Yes"] ;
775 -> 793 ;
794 [label="entropy = 0.0\nsamples = 2\nvalue = [0, 2]\nclass = Yes"] ;
793 -> 794 ;
795 [label="age <= 21.5\nentropy = 0.918\nsamples = 3\nvalue = [2, 1]\nclass = No"] ;
793 -> 795 ;
796 [label="entropy = 0.0\nsamples = 2\nvalue = [2, 0]\nclass = No"] ;
795 -> 796 ;
797 [label="entropy = 0.0\nsamples = 1\nvalue = [0, 1]\nclass = Yes"] ;
795 -> 797 ;
798 [label="entropy = 0.0\nsamples = 6\nvalue = [6, 0]\nclass = No"] ;
774 -> 798 ;
799 [label="age <= 33.5\nentropy = 1.0\nsamples = 136\nvalue = [69, 67]\nclass = No"] ;
771 -> 799 ;
800 [label="armed <= 62.0\nentropy = 0.971\nsamples = 55\nvalue = [22, 33]\nclass = Yes"] ;
799 -> 800 ;
801 [label="age <= 28.5\nentropy = 0.91\nsamples = 40\nvalue = [13, 27]\nclass = Yes"] ;
800 -> 801 ;
802 [label="age <= 25.5\nentropy = 0.999\nsamples = 23\nvalue = [11, 12]\nclass = Yes"] ;
801 -> 802 ;
803 [label="gender <= 0.5\nentropy = 0.722\nsamples = 10\nvalue = [2, 8]\nclass = Yes"] ;
802 -> 803 ;
804 [label="entropy = 0.0\nsamples = 1\nvalue = [1, 0]\nclass = No"] ;
803 -> 804 ;
805 [label="age <= 24.5\nentropy = 0.503\nsamples = 9\nvalue = [1, 8]\nclass = Yes"] ;
803 -> 805 ;
806 [label="manner_of_death <= 0.5\nentropy = 0.811\nsamples = 4\nvalue = [1, 3]\nclass = Yes"] ;
805 -> 806 ;
807 [label="entropy = 0.0\nsamples = 3\nvalue = [0, 3]\nclass = Yes"] ;
806 -> 807 ;
808 [label="entropy = 0.0\nsamples = 1\nvalue = [1, 0]\nclass = No"] ;
806 -> 808 ;
809 [label="entropy = 0.0\nsamples = 5\nvalue = [0, 5]\nclass = Yes"] ;
805 -> 809 ;
810 [label="age <= 27.5\nentropy = 0.89\nsamples = 13\nvalue = [9, 4]\nclass = No"] ;
802 -> 810 ;
811 [label="age <= 26.5\nentropy = 0.544\nsamples = 8\nvalue = [7, 1]\nclass = No"] ;
810 -> 811 ;
812 [label="gender <= 0.5\nentropy = 0.811\nsamples = 4\nvalue = [3, 1]\nclass = No"] ;
811 -> 812 ;
813 [label="entropy = 0.0\nsamples = 1\nvalue = [1, 0]\nclass = No"] ;
812 -> 813 ;
814 [label="entropy = 0.918\nsamples = 3\nvalue = [2, 1]\nclass = No"] ;
812 -> 814 ;
815 [label="entropy = 0.0\nsamples = 4\nvalue = [4, 0]\nclass = No"] ;
811 -> 815 ;
816 [label="body_camera <= 0.5\nentropy = 0.971\nsamples = 5\nvalue = [2, 3]\nclass = Yes"] ;
810 -> 816 ;
817 [label="gender <= 0.5\nentropy = 0.811\nsamples = 4\nvalue = [1, 3]\nclass = Yes"] ;
816 -> 817 ;
818 [label="entropy = 1.0\nsamples = 2\nvalue = [1, 1]\nclass = No"] ;
817 -> 818 ;
819 [label="entropy = 0.0\nsamples = 2\nvalue = [0, 2]\nclass = Yes"] ;
817 -> 819 ;
820 [label="entropy = 0.0\nsamples = 1\nvalue = [1, 0]\nclass = No"] ;
816 -> 820 ;
821 [label="race <= 1.5\nentropy = 0.523\nsamples = 17\nvalue = [2, 15]\nclass = Yes"] ;
801 -> 821 ;
822 [label="body_camera <= 0.5\nentropy = 0.918\nsamples = 6\nvalue = [2, 4]\nclass = Yes"] ;
821 -> 822 ;
823 [label="gender <= 0.5\nentropy = 0.722\nsamples = 5\nvalue = [1, 4]\nclass = Yes"] ;
822 -> 823 ;
824 [label="manner_of_death <= 0.5\nentropy = 1.0\nsamples = 2\nvalue = [1, 1]\nclass = No"] ;
823 -> 824 ;
825 [label="entropy = 0.0\nsamples = 1\nvalue = [0, 1]\nclass = Yes"] ;
824 -> 825 ;
826 [label="entropy = 0.0\nsamples = 1\nvalue = [1, 0]\nclass = No"] ;
824 -> 826 ;
827 [label="entropy = 0.0\nsamples = 3\nvalue = [0, 3]\nclass = Yes"] ;
823 -> 827 ;
828 [label="entropy = 0.0\nsamples = 1\nvalue = [1, 0]\nclass = No"] ;
822 -> 828 ;
829 [label="entropy = 0.0\nsamples = 11\nvalue = [0, 11]\nclass = Yes"] ;
821 -> 829 ;
830 [label="age <= 29.5\nentropy = 0.971\nsamples = 15\nvalue = [9, 6]\nclass = No"] ;
800 -> 830 ;
831 [label="age <= 28.5\nentropy = 0.994\nsamples = 11\nvalue = [5, 6]\nclass = Yes"] ;
830 -> 831 ;
832 [label="manner_of_death <= 0.5\nentropy = 0.991\nsamples = 9\nvalue = [5, 4]\nclass = No"] ;
831 -> 832 ;
833 [label="armed <= 67.0\nentropy = 0.954\nsamples = 8\nvalue = [5, 3]\nclass = No"] ;
832 -> 833 ;
834 [label="entropy = 0.0\nsamples = 1\nvalue = [1, 0]\nclass = No"] ;
833 -> 834 ;
835 [label="armed <= 71.5\nentropy = 0.985\nsamples = 7\nvalue = [4, 3]\nclass = No"] ;
833 -> 835 ;
836 [label="entropy = 0.0\nsamples = 1\nvalue = [0, 1]\nclass = Yes"] ;
835 -> 836 ;
837 [label="body_camera <= 0.5\nentropy = 0.918\nsamples = 6\nvalue = [4, 2]\nclass = No"] ;
835 -> 837 ;
838 [label="age <= 27.5\nentropy = 0.971\nsamples = 5\nvalue = [3, 2]\nclass = No"] ;
837 -> 838 ;
839 [label="race <= 1.5\nentropy = 1.0\nsamples = 4\nvalue = [2, 2]\nclass = No"] ;
838 -> 839 ;
840 [label="entropy = 1.0\nsamples = 2\nvalue = [1, 1]\nclass = No"] ;
839 -> 840 ;
841 [label="entropy = 1.0\nsamples = 2\nvalue = [1, 1]\nclass = No"] ;
839 -> 841 ;
842 [label="entropy = 0.0\nsamples = 1\nvalue = [1, 0]\nclass = No"] ;
838 -> 842 ;
843 [label="entropy = 0.0\nsamples = 1\nvalue = [1, 0]\nclass = No"] ;
837 -> 843 ;
844 [label="entropy = 0.0\nsamples = 1\nvalue = [0, 1]\nclass = Yes"] ;
832 -> 844 ;
845 [label="entropy = 0.0\nsamples = 2\nvalue = [0, 2]\nclass = Yes"] ;
831 -> 845 ;
846 [label="entropy = 0.0\nsamples = 4\nvalue = [4, 0]\nclass = No"] ;
830 -> 846 ;
847 [label="gender <= 0.5\nentropy = 0.981\nsamples = 81\nvalue = [47, 34]\nclass = No"] ;
799 -> 847 ;
848 [label="armed <= 38.5\nentropy = 0.544\nsamples = 8\nvalue = [1, 7]\nclass = Yes"] ;
847 -> 848 ;
849 [label="entropy = 0.0\nsamples = 1\nvalue = [1, 0]\nclass = No"] ;
848 -> 849 ;
850 [label="entropy = 0.0\nsamples = 7\nvalue = [0, 7]\nclass = Yes"] ;
848 -> 850 ;
851 [label="race <= 1.5\nentropy = 0.951\nsamples = 73\nvalue = [46, 27]\nclass = No"] ;
847 -> 851 ;
852 [label="age <= 39.5\nentropy = 0.997\nsamples = 30\nvalue = [16, 14]\nclass = No"] ;
851 -> 852 ;
853 [label="armed <= 38.0\nentropy = 0.89\nsamples = 13\nvalue = [9, 4]\nclass = No"] ;
852 -> 853 ;
854 [label="entropy = 0.0\nsamples = 1\nvalue = [0, 1]\nclass = Yes"] ;
853 -> 854 ;
855 [label="armed <= 59.0\nentropy = 0.811\nsamples = 12\nvalue = [9, 3]\nclass = No"] ;
853 -> 855 ;
856 [label="manner_of_death <= 0.5\nentropy = 0.503\nsamples = 9\nvalue = [8, 1]\nclass = No"] ;
855 -> 856 ;
857 [label="entropy = 0.0\nsamples = 7\nvalue = [7, 0]\nclass = No"] ;
856 -> 857 ;
858 [label="age <= 35.5\nentropy = 1.0\nsamples = 2\nvalue = [1, 1]\nclass = No"] ;
856 -> 858 ;
859 [label="entropy = 0.0\nsamples = 1\nvalue = [1, 0]\nclass = No"] ;
858 -> 859 ;
860 [label="entropy = 0.0\nsamples = 1\nvalue = [0, 1]\nclass = Yes"] ;
858 -> 860 ;
861 [label="age <= 35.5\nentropy = 0.918\nsamples = 3\nvalue = [1, 2]\nclass = Yes"] ;
855 -> 861 ;
862 [label="entropy = 0.0\nsamples = 2\nvalue = [0, 2]\nclass = Yes"] ;
861 -> 862 ;
863 [label="entropy = 0.0\nsamples = 1\nvalue = [1, 0]\nclass = No"] ;
861 -> 863 ;
864 [label="armed <= 39.5\nentropy = 0.977\nsamples = 17\nvalue = [7, 10]\nclass = Yes"] ;
852 -> 864 ;
865 [label="entropy = 0.0\nsamples = 1\nvalue = [1, 0]\nclass = No"] ;
864 -> 865 ;
866 [label="age <= 44.5\nentropy = 0.954\nsamples = 16\nvalue = [6, 10]\nclass = Yes"] ;
864 -> 866 ;
867 [label="age <= 41.5\nentropy = 1.0\nsamples = 8\nvalue = [4, 4]\nclass = No"] ;
866 -> 867 ;
868 [label="manner_of_death <= 0.5\nentropy = 0.722\nsamples = 5\nvalue = [1, 4]\nclass = Yes"] ;
867 -> 868 ;
869 [label="entropy = 0.0\nsamples = 3\nvalue = [0, 3]\nclass = Yes"] ;
868 -> 869 ;
870 [label="armed <= 71.5\nentropy = 1.0\nsamples = 2\nvalue = [1, 1]\nclass = No"] ;
868 -> 870 ;
871 [label="entropy = 0.0\nsamples = 1\nvalue = [0, 1]\nclass = Yes"] ;
870 -> 871 ;
872 [label="entropy = 0.0\nsamples = 1\nvalue = [1, 0]\nclass = No"] ;
870 -> 872 ;
873 [label="entropy = 0.0\nsamples = 3\nvalue = [3, 0]\nclass = No"] ;
867 -> 873 ;
874 [label="armed <= 58.5\nentropy = 0.811\nsamples = 8\nvalue = [2, 6]\nclass = Yes"] ;
866 -> 874 ;
875 [label="age <= 50.5\nentropy = 0.592\nsamples = 7\nvalue = [1, 6]\nclass = Yes"] ;
874 -> 875 ;
876 [label="entropy = 0.0\nsamples = 5\nvalue = [0, 5]\nclass = Yes"] ;
875 -> 876 ;
877 [label="age <= 52.5\nentropy = 1.0\nsamples = 2\nvalue = [1, 1]\nclass = No"] ;
875 -> 877 ;
878 [label="entropy = 0.0\nsamples = 1\nvalue = [1, 0]\nclass = No"] ;
877 -> 878 ;
879 [label="entropy = 0.0\nsamples = 1\nvalue = [0, 1]\nclass = Yes"] ;
877 -> 879 ;
880 [label="entropy = 0.0\nsamples = 1\nvalue = [1, 0]\nclass = No"] ;
874 -> 880 ;
881 [label="armed <= 73.5\nentropy = 0.884\nsamples = 43\nvalue = [30, 13]\nclass = No"] ;
851 -> 881 ;
882 [label="armed <= 70.5\nentropy = 0.91\nsamples = 40\nvalue = [27, 13]\nclass = No"] ;
881 -> 882 ;
883 [label="age <= 44.5\nentropy = 0.89\nsamples = 39\nvalue = [27, 12]\nclass = No"] ;
882 -> 883 ;
884 [label="age <= 41.5\nentropy = 0.958\nsamples = 29\nvalue = [18, 11]\nclass = No"] ;
883 -> 884 ;
885 [label="body_camera <= 0.5\nentropy = 0.931\nsamples = 26\nvalue = [17, 9]\nclass = No"] ;
884 -> 885 ;
886 [label="age <= 39.5\nentropy = 0.966\nsamples = 23\nvalue = [14, 9]\nclass = No"] ;
885 -> 886 ;
887 [label="armed <= 42.0\nentropy = 0.985\nsamples = 21\nvalue = [12, 9]\nclass = No"] ;
886 -> 887 ;
888 [label="age <= 38.5\nentropy = 0.998\nsamples = 17\nvalue = [9, 8]\nclass = No"] ;
887 -> 888 ;
889 [label="race <= 2.5\nentropy = 0.985\nsamples = 14\nvalue = [6, 8]\nclass = Yes"] ;
888 -> 889 ;
890 [label="age <= 36.0\nentropy = 0.961\nsamples = 13\nvalue = [5, 8]\nclass = Yes"] ;
889 -> 890 ;
891 [label="entropy = 0.0\nsamples = 3\nvalue = [0, 3]\nclass = Yes"] ;
890 -> 891 ;
892 [label="age <= 37.5\nentropy = 1.0\nsamples = 10\nvalue = [5, 5]\nclass = No"] ;
890 -> 892 ;
893 [label="manner_of_death <= 0.5\nentropy = 0.985\nsamples = 7\nvalue = [4, 3]\nclass = No"] ;
892 -> 893 ;
894 [label="entropy = 1.0\nsamples = 6\nvalue = [3, 3]\nclass = No"] ;
893 -> 894 ;
895 [label="entropy = 0.0\nsamples = 1\nvalue = [1, 0]\nclass = No"] ;
893 -> 895 ;
896 [label="manner_of_death <= 0.5\nentropy = 0.918\nsamples = 3\nvalue = [1, 2]\nclass = Yes"] ;
892 -> 896 ;
897 [label="entropy = 1.0\nsamples = 2\nvalue = [1, 1]\nclass = No"] ;
896 -> 897 ;
898 [label="entropy = 0.0\nsamples = 1\nvalue = [0, 1]\nclass = Yes"] ;
896 -> 898 ;
899 [label="entropy = 0.0\nsamples = 1\nvalue = [1, 0]\nclass = No"] ;
889 -> 899 ;
900 [label="entropy = 0.0\nsamples = 3\nvalue = [3, 0]\nclass = No"] ;
888 -> 900 ;
901 [label="age <= 38.0\nentropy = 0.811\nsamples = 4\nvalue = [3, 1]\nclass = No"] ;
887 -> 901 ;
902 [label="entropy = 0.0\nsamples = 3\nvalue = [3, 0]\nclass = No"] ;
901 -> 902 ;
903 [label="entropy = 0.0\nsamples = 1\nvalue = [0, 1]\nclass = Yes"] ;
901 -> 903 ;
904 [label="entropy = 0.0\nsamples = 2\nvalue = [2, 0]\nclass = No"] ;
886 -> 904 ;
905 [label="entropy = 0.0\nsamples = 3\nvalue = [3, 0]\nclass = No"] ;
885 -> 905 ;
906 [label="armed <= 38.5\nentropy = 0.918\nsamples = 3\nvalue = [1, 2]\nclass = Yes"] ;
884 -> 906 ;
907 [label="entropy = 0.0\nsamples = 1\nvalue = [1, 0]\nclass = No"] ;
906 -> 907 ;
908 [label="entropy = 0.0\nsamples = 2\nvalue = [0, 2]\nclass = Yes"] ;
906 -> 908 ;
909 [label="race <= 2.5\nentropy = 0.469\nsamples = 10\nvalue = [9, 1]\nclass = No"] ;
883 -> 909 ;
910 [label="entropy = 0.0\nsamples = 9\nvalue = [9, 0]\nclass = No"] ;
909 -> 910 ;
911 [label="entropy = 0.0\nsamples = 1\nvalue = [0, 1]\nclass = Yes"] ;
909 -> 911 ;
912 [label="entropy = 0.0\nsamples = 1\nvalue = [0, 1]\nclass = Yes"] ;
882 -> 912 ;
913 [label="entropy = 0.0\nsamples = 3\nvalue = [3, 0]\nclass = No"] ;
881 -> 913 ;
914 [label="gender <= 0.5\nentropy = 0.592\nsamples = 21\nvalue = [18, 3]\nclass = No"] ;
770 -> 914 ;
915 [label="entropy = 0.0\nsamples = 1\nvalue = [0, 1]\nclass = Yes"] ;
914 -> 915 ;
916 [label="body_camera <= 0.5\nentropy = 0.469\nsamples = 20\nvalue = [18, 2]\nclass = No"] ;
914 -> 916 ;
917 [label="armed <= 77.5\nentropy = 0.297\nsamples = 19\nvalue = [18, 1]\nclass = No"] ;
916 -> 917 ;
918 [label="entropy = 0.0\nsamples = 18\nvalue = [18, 0]\nclass = No"] ;
917 -> 918 ;
919 [label="entropy = 0.0\nsamples = 1\nvalue = [0, 1]\nclass = Yes"] ;
917 -> 919 ;
920 [label="entropy = 0.0\nsamples = 1\nvalue = [0, 1]\nclass = Yes"] ;
916 -> 920 ;
921 [label="manner_of_death <= 0.5\nentropy = 0.485\nsamples = 19\nvalue = [17, 2]\nclass = No"] ;
769 -> 921 ;
922 [label="armed <= 74.0\nentropy = 0.323\nsamples = 17\nvalue = [16, 1]\nclass = No"] ;
921 -> 922 ;
923 [label="entropy = 0.0\nsamples = 13\nvalue = [13, 0]\nclass = No"] ;
922 -> 923 ;
924 [label="race <= 1.5\nentropy = 0.811\nsamples = 4\nvalue = [3, 1]\nclass = No"] ;
922 -> 924 ;
925 [label="body_camera <= 0.5\nentropy = 0.918\nsamples = 3\nvalue = [2, 1]\nclass = No"] ;
924 -> 925 ;
926 [label="entropy = 1.0\nsamples = 2\nvalue = [1, 1]\nclass = No"] ;
925 -> 926 ;
927 [label="entropy = 0.0\nsamples = 1\nvalue = [1, 0]\nclass = No"] ;
925 -> 927 ;
928 [label="entropy = 0.0\nsamples = 1\nvalue = [1, 0]\nclass = No"] ;
924 -> 928 ;
929 [label="armed <= 50.5\nentropy = 1.0\nsamples = 2\nvalue = [1, 1]\nclass = No"] ;
921 -> 929 ;
930 [label="entropy = 0.0\nsamples = 1\nvalue = [0, 1]\nclass = Yes"] ;
929 -> 930 ;
931 [label="entropy = 0.0\nsamples = 1\nvalue = [1, 0]\nclass = No"] ;
929 -> 931 ;
932 [label="armed <= 76.5\nentropy = 0.414\nsamples = 24\nvalue = [22, 2]\nclass = No"] ;
656 -> 932 ;
933 [label="age <= 62.0\nentropy = 0.258\nsamples = 23\nvalue = [22, 1]\nclass = No"] ;
932 -> 933 ;
934 [label="entropy = 0.0\nsamples = 22\nvalue = [22, 0]\nclass = No"] ;
933 -> 934 ;
935 [label="entropy = 0.0\nsamples = 1\nvalue = [0, 1]\nclass = Yes"] ;
933 -> 935 ;
936 [label="entropy = 0.0\nsamples = 1\nvalue = [0, 1]\nclass = Yes"] ;
932 -> 936 ;
937 [label="entropy = 0.0\nsamples = 19\nvalue = [19, 0]\nclass = No"] ;
655 -> 937 ;
938 [label="armed <= 31.0\nentropy = 0.942\nsamples = 1133\nvalue = [726, 407]\nclass = No"] ;
390 -> 938 ;
939 [label="flee <= 2.5\nentropy = 0.909\nsamples = 730\nvalue = [493.0, 237.0]\nclass = No"] ;
938 -> 939 ;
940 [label="body_camera <= 0.5\nentropy = 0.919\nsamples = 694\nvalue = [462, 232]\nclass = No"] ;
939 -> 940 ;
941 [label="armed <= 2.5\nentropy = 0.909\nsamples = 633\nvalue = [428.0, 205.0]\nclass = No"] ;
940 -> 941 ;
942 [label="entropy = 0.0\nsamples = 6\nvalue = [6, 0]\nclass = No"] ;
941 -> 942 ;
943 [label="age <= 15.5\nentropy = 0.912\nsamples = 627\nvalue = [422, 205]\nclass = No"] ;
941 -> 943 ;
944 [label="entropy = 0.0\nsamples = 1\nvalue = [0, 1]\nclass = Yes"] ;
943 -> 944 ;
945 [label="threat_level <= 0.5\nentropy = 0.911\nsamples = 626\nvalue = [422, 204]\nclass = No"] ;
943 -> 945 ;
946 [label="age <= 47.5\nentropy = 0.894\nsamples = 495\nvalue = [341, 154]\nclass = No"] ;
945 -> 946 ;
947 [label="age <= 44.5\nentropy = 0.86\nsamples = 289\nvalue = [207, 82]\nclass = No"] ;
946 -> 947 ;
948 [label="race <= 4.5\nentropy = 0.904\nsamples = 244\nvalue = [166, 78]\nclass = No"] ;
947 -> 948 ;
949 [label="age <= 28.0\nentropy = 0.918\nsamples = 6\nvalue = [2, 4]\nclass = Yes"] ;
948 -> 949 ;
950 [label="entropy = 0.0\nsamples = 2\nvalue = [0, 2]\nclass = Yes"] ;
949 -> 950 ;
951 [label="age <= 30.5\nentropy = 1.0\nsamples = 4\nvalue = [2, 2]\nclass = No"] ;
949 -> 951 ;
952 [label="entropy = 0.0\nsamples = 1\nvalue = [1, 0]\nclass = No"] ;
951 -> 952 ;
953 [label="armed <= 21.5\nentropy = 0.918\nsamples = 3\nvalue = [1, 2]\nclass = Yes"] ;
951 -> 953 ;
954 [label="entropy = 0.0\nsamples = 1\nvalue = [0, 1]\nclass = Yes"] ;
953 -> 954 ;
955 [label="age <= 35.0\nentropy = 1.0\nsamples = 2\nvalue = [1, 1]\nclass = No"] ;
953 -> 955 ;
956 [label="entropy = 0.0\nsamples = 1\nvalue = [1, 0]\nclass = No"] ;
955 -> 956 ;
957 [label="entropy = 0.0\nsamples = 1\nvalue = [0, 1]\nclass = Yes"] ;
955 -> 957 ;
958 [label="armed <= 18.5\nentropy = 0.894\nsamples = 238\nvalue = [164, 74]\nclass = No"] ;
948 -> 958 ;
959 [label="entropy = 0.0\nsamples = 3\nvalue = [3, 0]\nclass = No"] ;
958 -> 959 ;
960 [label="age <= 38.5\nentropy = 0.899\nsamples = 235\nvalue = [161, 74]\nclass = No"] ;
958 -> 960 ;
961 [label="age <= 33.5\nentropy = 0.867\nsamples = 180\nvalue = [128.0, 52.0]\nclass = No"] ;
960 -> 961 ;
962 [label="manner_of_death <= 0.5\nentropy = 0.905\nsamples = 131\nvalue = [89, 42]\nclass = No"] ;
961 -> 962 ;
963 [label="age <= 16.5\nentropy = 0.908\nsamples = 130\nvalue = [88, 42]\nclass = No"] ;
962 -> 963 ;
964 [label="entropy = 0.0\nsamples = 1\nvalue = [1, 0]\nclass = No"] ;
963 -> 964 ;
965 [label="age <= 28.5\nentropy = 0.91\nsamples = 129\nvalue = [87, 42]\nclass = No"] ;
963 -> 965 ;
966 [label="gender <= 0.5\nentropy = 0.939\nsamples = 73\nvalue = [47, 26]\nclass = No"] ;
965 -> 966 ;
967 [label="entropy = 0.0\nsamples = 4\nvalue = [4, 0]\nclass = No"] ;
966 -> 967 ;
968 [label="age <= 25.5\nentropy = 0.956\nsamples = 69\nvalue = [43, 26]\nclass = No"] ;
966 -> 968 ;
969 [label="age <= 24.5\nentropy = 0.91\nsamples = 43\nvalue = [29.0, 14.0]\nclass = No"] ;
968 -> 969 ;
970 [label="age <= 22.5\nentropy = 0.927\nsamples = 38\nvalue = [25, 13]\nclass = No"] ;
969 -> 970 ;
971 [label="age <= 19.5\nentropy = 0.877\nsamples = 27\nvalue = [19, 8]\nclass = No"] ;
970 -> 971 ;
972 [label="age <= 17.5\nentropy = 0.971\nsamples = 10\nvalue = [6, 4]\nclass = No"] ;
971 -> 972 ;
973 [label="entropy = 1.0\nsamples = 2\nvalue = [1, 1]\nclass = No"] ;
972 -> 973 ;
974 [label="age <= 18.5\nentropy = 0.954\nsamples = 8\nvalue = [5, 3]\nclass = No"] ;
972 -> 974 ;
975 [label="entropy = 0.918\nsamples = 6\nvalue = [4, 2]\nclass = No"] ;
974 -> 975 ;
976 [label="entropy = 1.0\nsamples = 2\nvalue = [1, 1]\nclass = No"] ;
974 -> 976 ;
977 [label="age <= 20.5\nentropy = 0.787\nsamples = 17\nvalue = [13, 4]\nclass = No"] ;
971 -> 977 ;
978 [label="entropy = 0.863\nsamples = 7\nvalue = [5, 2]\nclass = No"] ;
977 -> 978 ;
979 [label="age <= 21.5\nentropy = 0.722\nsamples = 10\nvalue = [8, 2]\nclass = No"] ;
977 -> 979 ;
980 [label="entropy = 0.722\nsamples = 5\nvalue = [4, 1]\nclass = No"] ;
979 -> 980 ;
981 [label="entropy = 0.722\nsamples = 5\nvalue = [4, 1]\nclass = No"] ;
979 -> 981 ;
982 [label="age <= 23.5\nentropy = 0.994\nsamples = 11\nvalue = [6, 5]\nclass = No"] ;
970 -> 982 ;
983 [label="entropy = 0.0\nsamples = 2\nvalue = [0, 2]\nclass = Yes"] ;
982 -> 983 ;
984 [label="entropy = 0.918\nsamples = 9\nvalue = [6, 3]\nclass = No"] ;
982 -> 984 ;
985 [label="entropy = 0.722\nsamples = 5\nvalue = [4, 1]\nclass = No"] ;
969 -> 985 ;
986 [label="age <= 26.5\nentropy = 0.996\nsamples = 26\nvalue = [14, 12]\nclass = No"] ;
968 -> 986 ;
987 [label="entropy = 0.98\nsamples = 12\nvalue = [7, 5]\nclass = No"] ;
986 -> 987 ;
988 [label="age <= 27.5\nentropy = 1.0\nsamples = 14\nvalue = [7, 7]\nclass = No"] ;
986 -> 988 ;
989 [label="entropy = 1.0\nsamples = 6\nvalue = [3, 3]\nclass = No"] ;
988 -> 989 ;
990 [label="entropy = 1.0\nsamples = 8\nvalue = [4, 4]\nclass = No"] ;
988 -> 990 ;
991 [label="age <= 29.5\nentropy = 0.863\nsamples = 56\nvalue = [40, 16]\nclass = No"] ;
965 -> 991 ;
992 [label="entropy = 0.0\nsamples = 5\nvalue = [5, 0]\nclass = No"] ;
991 -> 992 ;
993 [label="age <= 30.5\nentropy = 0.897\nsamples = 51\nvalue = [35, 16]\nclass = No"] ;
991 -> 993 ;
994 [label="gender <= 0.5\nentropy = 0.65\nsamples = 6\nvalue = [5, 1]\nclass = No"] ;
993 -> 994 ;
995 [label="entropy = 0.0\nsamples = 1\nvalue = [1, 0]\nclass = No"] ;
994 -> 995 ;
996 [label="entropy = 0.722\nsamples = 5\nvalue = [4, 1]\nclass = No"] ;
994 -> 996 ;
997 [label="gender <= 0.5\nentropy = 0.918\nsamples = 45\nvalue = [30, 15]\nclass = No"] ;
993 -> 997 ;
998 [label="age <= 32.5\nentropy = 0.918\nsamples = 3\nvalue = [1, 2]\nclass = Yes"] ;
997 -> 998 ;
999 [label="entropy = 0.0\nsamples = 2\nvalue = [0, 2]\nclass = Yes"] ;
998 -> 999 ;
1000 [label="entropy = 0.0\nsamples = 1\nvalue = [1, 0]\nclass = No"] ;
998 -> 1000 ;
1001 [label="age <= 31.5\nentropy = 0.893\nsamples = 42\nvalue = [29, 13]\nclass = No"] ;
997 -> 1001 ;
1002 [label="entropy = 0.94\nsamples = 14\nvalue = [9, 5]\nclass = No"] ;
1001 -> 1002 ;
1003 [label="age <= 32.5\nentropy = 0.863\nsamples = 28\nvalue = [20, 8]\nclass = No"] ;
1001 -> 1003 ;
1004 [label="entropy = 0.863\nsamples = 14\nvalue = [10, 4]\nclass = No"] ;
1003 -> 1004 ;
1005 [label="entropy = 0.863\nsamples = 14\nvalue = [10, 4]\nclass = No"] ;
1003 -> 1005 ;
1006 [label="entropy = 0.0\nsamples = 1\nvalue = [1, 0]\nclass = No"] ;
962 -> 1006 ;
1007 [label="age <= 36.5\nentropy = 0.73\nsamples = 49\nvalue = [39, 10]\nclass = No"] ;
961 -> 1007 ;
1008 [label="gender <= 0.5\nentropy = 0.661\nsamples = 35\nvalue = [29.0, 6.0]\nclass = No"] ;
1007 -> 1008 ;
1009 [label="age <= 35.5\nentropy = 1.0\nsamples = 2\nvalue = [1, 1]\nclass = No"] ;
1008 -> 1009 ;
1010 [label="entropy = 0.0\nsamples = 1\nvalue = [1, 0]\nclass = No"] ;
1009 -> 1010 ;
1011 [label="entropy = 0.0\nsamples = 1\nvalue = [0, 1]\nclass = Yes"] ;
1009 -> 1011 ;
1012 [label="age <= 35.5\nentropy = 0.614\nsamples = 33\nvalue = [28, 5]\nclass = No"] ;
1008 -> 1012 ;
1013 [label="age <= 34.5\nentropy = 0.702\nsamples = 21\nvalue = [17, 4]\nclass = No"] ;
1012 -> 1013 ;
1014 [label="entropy = 0.592\nsamples = 14\nvalue = [12, 2]\nclass = No"] ;
1013 -> 1014 ;
1015 [label="entropy = 0.863\nsamples = 7\nvalue = [5, 2]\nclass = No"] ;
1013 -> 1015 ;
1016 [label="entropy = 0.414\nsamples = 12\nvalue = [11, 1]\nclass = No"] ;
1012 -> 1016 ;
1017 [label="age <= 37.5\nentropy = 0.863\nsamples = 14\nvalue = [10, 4]\nclass = No"] ;
1007 -> 1017 ;
1018 [label="gender <= 0.5\nentropy = 0.954\nsamples = 8\nvalue = [5, 3]\nclass = No"] ;
1017 -> 1018 ;
1019 [label="entropy = 0.0\nsamples = 1\nvalue = [1, 0]\nclass = No"] ;
1018 -> 1019 ;
1020 [label="entropy = 0.985\nsamples = 7\nvalue = [4, 3]\nclass = No"] ;
1018 -> 1020 ;
1021 [label="entropy = 0.65\nsamples = 6\nvalue = [5, 1]\nclass = No"] ;
1017 -> 1021 ;
1022 [label="age <= 39.5\nentropy = 0.971\nsamples = 55\nvalue = [33, 22]\nclass = No"] ;
960 -> 1022 ;
1023 [label="entropy = 0.971\nsamples = 10\nvalue = [4, 6]\nclass = Yes"] ;
1022 -> 1023 ;
1024 [label="armed <= 26.5\nentropy = 0.939\nsamples = 45\nvalue = [29.0, 16.0]\nclass = No"] ;
1022 -> 1024 ;
1025 [label="entropy = 0.0\nsamples = 1\nvalue = [0, 1]\nclass = Yes"] ;
1024 -> 1025 ;
1026 [label="gender <= 0.5\nentropy = 0.926\nsamples = 44\nvalue = [29.0, 15.0]\nclass = No"] ;
1024 -> 1026 ;
1027 [label="age <= 40.5\nentropy = 0.985\nsamples = 7\nvalue = [4, 3]\nclass = No"] ;
1026 -> 1027 ;
1028 [label="entropy = 0.0\nsamples = 1\nvalue = [1, 0]\nclass = No"] ;
1027 -> 1028 ;
1029 [label="age <= 42.0\nentropy = 1.0\nsamples = 6\nvalue = [3, 3]\nclass = No"] ;
1027 -> 1029 ;
1030 [label="entropy = 1.0\nsamples = 2\nvalue = [1, 1]\nclass = No"] ;
1029 -> 1030 ;
1031 [label="age <= 43.5\nentropy = 1.0\nsamples = 4\nvalue = [2, 2]\nclass = No"] ;
1029 -> 1031 ;
1032 [label="entropy = 1.0\nsamples = 2\nvalue = [1, 1]\nclass = No"] ;
1031 -> 1032 ;
1033 [label="entropy = 1.0\nsamples = 2\nvalue = [1, 1]\nclass = No"] ;
1031 -> 1033 ;
1034 [label="age <= 41.5\nentropy = 0.909\nsamples = 37\nvalue = [25, 12]\nclass = No"] ;
1026 -> 1034 ;
1035 [label="age <= 40.5\nentropy = 0.932\nsamples = 23\nvalue = [15, 8]\nclass = No"] ;
1034 -> 1035 ;
1036 [label="entropy = 0.946\nsamples = 11\nvalue = [7, 4]\nclass = No"] ;
1035 -> 1036 ;
1037 [label="entropy = 0.918\nsamples = 12\nvalue = [8, 4]\nclass = No"] ;
1035 -> 1037 ;
1038 [label="age <= 42.5\nentropy = 0.863\nsamples = 14\nvalue = [10, 4]\nclass = No"] ;
1034 -> 1038 ;
1039 [label="entropy = 0.811\nsamples = 4\nvalue = [3, 1]\nclass = No"] ;
1038 -> 1039 ;
1040 [label="age <= 43.5\nentropy = 0.881\nsamples = 10\nvalue = [7, 3]\nclass = No"] ;
1038 -> 1040 ;
1041 [label="entropy = 0.918\nsamples = 3\nvalue = [2, 1]\nclass = No"] ;
1040 -> 1041 ;
1042 [label="entropy = 0.863\nsamples = 7\nvalue = [5, 2]\nclass = No"] ;
1040 -> 1042 ;
1043 [label="age <= 46.5\nentropy = 0.433\nsamples = 45\nvalue = [41, 4]\nclass = No"] ;
947 -> 1043 ;
1044 [label="age <= 45.5\nentropy = 0.337\nsamples = 32\nvalue = [30, 2]\nclass = No"] ;
1043 -> 1044 ;
1045 [label="gender <= 0.5\nentropy = 0.485\nsamples = 19\nvalue = [17, 2]\nclass = No"] ;
1044 -> 1045 ;
1046 [label="entropy = 0.0\nsamples = 1\nvalue = [1, 0]\nclass = No"] ;
1045 -> 1046 ;
1047 [label="race <= 4.5\nentropy = 0.503\nsamples = 18\nvalue = [16, 2]\nclass = No"] ;
1045 -> 1047 ;
1048 [label="entropy = 0.0\nsamples = 1\nvalue = [1, 0]\nclass = No"] ;
1047 -> 1048 ;
1049 [label="entropy = 0.523\nsamples = 17\nvalue = [15, 2]\nclass = No"] ;
1047 -> 1049 ;
1050 [label="entropy = 0.0\nsamples = 13\nvalue = [13, 0]\nclass = No"] ;
1044 -> 1050 ;
1051 [label="gender <= 0.5\nentropy = 0.619\nsamples = 13\nvalue = [11, 2]\nclass = No"] ;
1043 -> 1051 ;
1052 [label="entropy = 0.0\nsamples = 1\nvalue = [1, 0]\nclass = No"] ;
1051 -> 1052 ;
1053 [label="entropy = 0.65\nsamples = 12\nvalue = [10, 2]\nclass = No"] ;
1051 -> 1053 ;
1054 [label="armed <= 8.5\nentropy = 0.934\nsamples = 206\nvalue = [134, 72]\nclass = No"] ;
946 -> 1054 ;
1055 [label="entropy = 0.0\nsamples = 1\nvalue = [0, 1]\nclass = Yes"] ;
1054 -> 1055 ;
1056 [label="armed <= 26.5\nentropy = 0.931\nsamples = 205\nvalue = [134, 71]\nclass = No"] ;
1054 -> 1056 ;
1057 [label="entropy = 0.0\nsamples = 3\nvalue = [3, 0]\nclass = No"] ;
1056 -> 1057 ;
1058 [label="manner_of_death <= 0.5\nentropy = 0.935\nsamples = 202\nvalue = [131, 71]\nclass = No"] ;
1056 -> 1058 ;
1059 [label="race <= 4.5\nentropy = 0.93\nsamples = 200\nvalue = [131, 69]\nclass = No"] ;
1058 -> 1059 ;
1060 [label="entropy = 0.0\nsamples = 1\nvalue = [0, 1]\nclass = Yes"] ;
1059 -> 1060 ;
1061 [label="age <= 60.5\nentropy = 0.926\nsamples = 199\nvalue = [131, 68]\nclass = No"] ;
1059 -> 1061 ;
1062 [label="age <= 59.5\nentropy = 0.95\nsamples = 138\nvalue = [87, 51]\nclass = No"] ;
1061 -> 1062 ;
1063 [label="age <= 53.5\nentropy = 0.943\nsamples = 133\nvalue = [85, 48]\nclass = No"] ;
1062 -> 1063 ;
1064 [label="age <= 51.5\nentropy = 0.918\nsamples = 75\nvalue = [50, 25]\nclass = No"] ;
1063 -> 1064 ;
1065 [label="gender <= 0.5\nentropy = 0.947\nsamples = 52\nvalue = [33, 19]\nclass = No"] ;
1064 -> 1065 ;
1066 [label="age <= 48.5\nentropy = 1.0\nsamples = 4\nvalue = [2, 2]\nclass = No"] ;
1065 -> 1066 ;
